{"learner":{"attributes":{},"feature_names":["Timestamp","From Bank","Account","To Bank","Account.1","Amount Received","Receiving Currency","Amount Paid","Payment Currency","Payment Format"],"feature_types":["float","float","float","float","float","float","float","float","float","float"],"gradient_booster":{"model":{"cats":{"enc":[],"feature_segments":[],"sorted_idx":[]},"gbtree_model_param":{"num_parallel_tree":"1","num_trees":"100"},"iteration_indptr":[0,1,2,3,4,5,6,7,8,9,10,11,12,13,14,15,16,17,18,19,20,21,22,23,24,25,26,27,28,29,30,31,32,33,34,35,36,37,38,39,40,41,42,43,44,45,46,47,48,49,50,51,52,53,54,55,56,57,58,59,60,61,62,63,64,65,66,67,68,69,70,71,72,73,74,75,76,77,78,79,80,81,82,83,84,85,86,87,88,89,90,91,92,93,94,95,96,97,98,99,100],"tree_info":[0,0,0,0,0,0,0,0,0,0,0,0,0,0,0,0,0,0,0,0,0,0,0,0,0,0,0,0,0,0,0,0,0,0,0,0,0,0,0,0,0,0,0,0,0,0,0,0,0,0,0,0,0,0,0,0,0,0,0,0,0,0,0,0,0,0,0,0,0,0,0,0,0,0,0,0,0,0,0,0,0,0,0,0,0,0,0,0,0,0,0,0,0,0,0,0,0,0,0,0],"trees":[{"base_weights":[2.4152996E-3,4.8974666E-1,-1.550189E0,-1.3583318E0,1.5127866E0,2.0914175E-1,-1.8977956E0,2.77083E-1,-1.9291943E0,1.5383393E0,-1.3168756E-2,3.330847E-1,-6.782274E-2,-2.3434874E-2,-5.0949615E-1,-9.778605E-2,3.051029E-1,-2.324878E-2,-0E0,9.4565874E-1,1.6251575E0,4.0134814E-1,-0E0,-0E0,-1.3046196E-1,-1.0558087E-2,-2.28015E-2,-0E0,-2.702773E-3,5.0414586E-3,1.4113102E-3,-3.6694894E-3,1.20924115E-2,1.9679034E-2,6.007808E-3,-0E0,5.552363E-3,-8.3193684E-4,-0E0,-2.188839E-3,-0E0,-0E0,-1.9073276E-3],"categories":[],"categories_nodes":[],"categories_segments":[],"categories_sizes":[],"default_left":[0,0,0,0,0,0,0,0,0,0,0,0,0,0,0,0,0,0,0,0,0,0,0,0,0,0,0,0,0,0,0,0,0,0,0,0,0,0,0,0,0,0,0],"id":0,"left_children":[1,3,5,7,9,11,13,15,17,19,-1,21,23,-1,25,27,29,-1,-1,31,33,35,37,-1,39,-1,41,-1,-1,-1,-1,-1,-1,-1,-1,-1,-1,-1,-1,-1,-1,-1,-1],"loss_changes":[1.8624114E3,3.5599177E3,3.6562744E2,6.3293713E2,9.013428E1,4.2261987E0,2.4860474E1,2.5313196E0,4.600586E0,4.781421E1,0E0,2.1381035E0,3.1733572E-1,0E0,2.3372407E0,3.4473294E-1,2.078205E0,0E0,0E0,1.6155869E1,5.3901367E0,2.069027E0,3.0601842E-2,0E0,3.6017147E-1,0E0,3.775726E-1,0E0,0E0,0E0,0E0,0E0,0E0,0E0,0E0,0E0,0E0,0E0,0E0,0E0,0E0,0E0,0E0],"parents":[2147483647,0,0,1,1,2,2,3,3,4,4,5,5,6,6,7,7,8,8,9,9,11,11,12,12,14,14,15,15,16,16,19,19,20,20,21,21,22,22,24,24,26,26],"right_children":[2,4,6,8,10,12,14,16,18,20,-1,22,24,-1,26,28,30,-1,-1,32,34,36,38,-1,40,-1,42,-1,-1,-1,-1,-1,-1,-1,-1,-1,-1,-1,-1,-1,-1,-1,-1],"split_conditions":[0E0,-3.3333334E-1,-9.997022E-1,-9.999437E-1,4.2909107E-1,4.4129986E-1,9.344056E-1,-9.5848185E-1,8.810006E-1,-6.1257243E-1,-1.3168756E-2,-9.999517E-1,-4.2857143E-1,-2.3434874E-2,-6.8529E-1,-9.961582E-1,1.17296465E-1,-2.324878E-2,-0E0,-9.9613774E-1,8.4372675E-1,-8.9119E-1,5.9315324E-1,-0E0,8.0422187E-1,-1.0558087E-2,9.583677E-1,-0E0,-2.702773E-3,5.0414586E-3,1.4113102E-3,-3.6694894E-3,1.20924115E-2,1.9679034E-2,6.007808E-3,-0E0,5.552363E-3,-8.3193684E-4,-0E0,-2.188839E-3,-0E0,-0E0,-1.9073276E-3],"split_indices":[9,9,2,2,1,0,2,4,2,0,0,2,6,0,0,4,4,0,0,0,4,0,4,0,0,0,4,0,0,0,0,0,0,0,0,0,0,0,0,0,0,0,0],"split_type":[0,0,0,0,0,0,0,0,0,0,0,0,0,0,0,0,0,0,0,0,0,0,0,0,0,0,0,0,0,0,0,0,0,0,0,0,0,0,0,0,0,0,0],"sum_hessian":[2.45525E3,1.8725E3,5.8275E2,6.6575E2,1.20675E3,9.525E1,4.875E2,1.7175E2,4.94E2,1.198E3,8.75E0,7.15E1,2.375E1,4.66E2,2.15E1,4.75E0,1.67E2,4.9225E2,1.75E0,1.6425E2,1.03375E3,6.1E1,1.05E1,2.25E0,2.15E1,7E0,1.45E1,1E0,3.75E0,9.15E1,7.55E1,4.75E0,1.595E2,1.01775E3,1.6E1,6.5E0,5.45E1,1.5E0,9E0,1.95E1,2E0,4E0,1.05E1],"tree_param":{"num_deleted":"0","num_feature":"10","num_nodes":"43","size_leaf_vector":"1"}},{"base_weights":[5.073784E-5,4.8147017E-1,-1.5302285E0,-1.3493245E0,1.4944495E0,-5.7701916E-1,-1.8699917E0,-4.3896517E-1,-2.2819268E-2,1.5205688E0,-1.3262146E-2,-2.122213E-2,2.1981755E-1,-2.3283822E-2,-1.1954594E-2,-2.1810696E-2,2.4242142E-1,9.217255E-1,1.6099184E0,3.3232513E-1,-3.1407263E-2,3.8833632E-3,-0E0,-3.8498743E-3,1.1752464E-2,1.9510042E-2,4.685005E-3,4.772719E-3,-0E0,-1.3610449E-3,-0E0],"categories":[],"categories_nodes":[],"categories_segments":[],"categories_sizes":[],"default_left":[0,0,0,0,0,0,0,0,0,0,0,0,0,0,0,0,0,0,0,0,0,0,0,0,0,0,0,0,0,0,0],"id":1,"left_children":[1,3,5,7,9,11,13,15,-1,17,-1,-1,19,-1,-1,-1,21,23,25,27,29,-1,-1,-1,-1,-1,-1,-1,-1,-1,-1],"loss_changes":[1.8092682E3,3.4823408E3,1.7868372E2,3.24641E2,9.1278076E1,1.6067561E2,8.562866E0,2.498815E2,0E0,5.0460938E1,0E0,0E0,3.6721354E0,0E0,0E0,0E0,2.8596525E0,1.5189087E1,9.269287E0,2.6661596E0,3.0067882E-1,0E0,0E0,0E0,0E0,0E0,0E0,0E0,0E0,0E0,0E0],"parents":[2147483647,0,0,1,1,2,2,3,3,4,4,5,5,6,6,7,7,9,9,12,12,16,16,17,17,18,18,19,19,20,20],"right_children":[2,4,6,8,10,12,14,16,-1,18,-1,-1,20,-1,-1,-1,22,24,26,28,30,-1,-1,-1,-1,-1,-1,-1,-1,-1,-1],"split_conditions":[0E0,-3.3333334E-1,-9.996071E-1,-9.996071E-1,4.2909107E-1,-9.996127E-1,9.1883224E-1,-9.996127E-1,-2.2819268E-2,-6.1257243E-1,-1.3262146E-2,-2.122213E-2,4.4129986E-1,-2.3283822E-2,-1.1954594E-2,-2.1810696E-2,-3.6276042E-1,-9.9613774E-1,8.4372675E-1,2.4464977E-1,-1.6726401E-1,3.8833632E-3,-0E0,-3.8498743E-3,1.1752464E-2,1.9510042E-2,4.685005E-3,4.772719E-3,-0E0,-1.3610449E-3,-0E0],"split_indices":[9,9,1,1,1,1,4,1,0,0,0,0,0,0,0,0,3,0,4,3,3,0,0,0,0,0,0,0,0,0,0],"split_type":[0,0,0,0,0,0,0,0,0,0,0,0,0,0,0,0,0,0,0,0,0,0,0,0,0,0,0,0,0,0,0],"sum_hessian":[2.4497642E3,1.8673286E3,5.824356E2,6.6368317E2,1.2036454E3,1.5849115E2,4.2394443E2,2.5498816E2,4.08695E2,1.1946459E3,8.99961E0,6.24916E1,9.599955E1,3.8519724E2,3.8747208E1,8.2988785E1,1.7199937E2,1.6599408E2,1.0286517E3,7.224957E1,2.3749977E1,1.2199949E2,4.999988E1,4.2499857E0,1.617441E2,1.0134019E3,1.5249863E1,6.59996E1,6.249967E0,2.0749979E1,2.9999976E0],"tree_param":{"num_deleted":"0","num_feature":"10","num_nodes":"31","size_leaf_vector":"1"}},{"base_weights":[2.2783733E-3,4.7850984E-1,-1.5092428E0,-1.3367774E0,1.476507E0,-5.668518E-1,-1.8466088E0,-4.3990806E-1,-2.2583326E-2,1.50229E0,-1.315997E-2,-2.1221828E-2,2.5792313E-1,-1.0330446E0,-2.3106612E-2,-2.1592539E-2,2.4428827E-1,9.1210747E-1,1.589396E0,3.8787842E-1,-4.8336353E-2,-1.4875109E-2,-3.2052574E-1,-1.1852661E-3,3.2633883E-3,-4.1388567E-3,1.1724717E-2,1.9255197E-2,5.553795E-3,-0E0,5.342885E-3,-0E0,-2.170487E-3,-5.4431423E-3,-0E0],"categories":[],"categories_nodes":[],"categories_segments":[],"categories_sizes":[],"default_left":[0,0,0,0,0,0,0,0,0,0,0,0,0,0,0,0,0,0,0,0,0,0,0,0,0,0,0,0,0,0,0,0,0,0,0],"id":2,"left_children":[1,3,5,7,9,11,13,15,-1,17,-1,-1,19,21,-1,-1,23,25,27,29,31,-1,33,-1,-1,-1,-1,-1,-1,-1,-1,-1,-1,-1,-1],"loss_changes":[1.7712897E3,3.4072168E3,1.7601819E2,3.14687E2,8.952246E1,1.6866704E2,9.491821E0,2.4717151E2,0E0,4.84292E1,0E0,0E0,4.95529E0,1.4328232E0,0E0,0E0,2.2188396E0,1.6879715E1,6.5600586E0,2.1530056E0,3.70418E-1,0E0,1.1398423E0,0E0,0E0,0E0,0E0,0E0,0E0,0E0,0E0,0E0,0E0,0E0,0E0],"parents":[2147483647,0,0,1,1,2,2,3,3,4,4,5,5,6,6,7,7,9,9,12,12,13,13,16,16,17,17,18,18,19,19,20,20,22,22],"right_children":[2,4,6,8,10,12,14,16,-1,18,-1,-1,20,22,-1,-1,24,26,28,30,32,-1,34,-1,-1,-1,-1,-1,-1,-1,-1,-1,-1,-1,-1],"split_conditions":[0E0,-3.3333334E-1,-9.996071E-1,-9.996071E-1,4.2909107E-1,-9.996127E-1,-7.1428573E-1,-9.996127E-1,-2.2583326E-2,-6.1257243E-1,-1.315997E-2,-2.1221828E-2,4.4129986E-1,-1.3836578E-1,-2.3106612E-2,-2.1592539E-2,-9.5848185E-1,-9.9613774E-1,8.4372675E-1,-8.9119E-1,1.4369941E-1,-1.4875109E-2,2.730905E-1,-1.1852661E-3,3.2633883E-3,-4.1388567E-3,1.1724717E-2,1.9255197E-2,5.553795E-3,-0E0,5.342885E-3,-0E0,-2.170487E-3,-5.4431423E-3,-0E0],"split_indices":[9,9,1,1,1,1,8,1,0,0,0,0,0,1,0,0,4,0,4,0,4,0,0,0,0,0,0,0,0,0,0,0,0,0,0],"split_type":[0,0,0,0,0,0,0,0,0,0,0,0,0,0,0,0,0,0,0,0,0,0,0,0,0,0,0,0,0,0,0,0,0,0,0],"sum_hessian":[2.4545735E3,1.8703242E3,5.8424927E2,6.619899E2,1.2083342E3,1.5946704E2,4.2478226E2,2.5470544E2,4.072845E2,1.1993358E3,8.998428E0,6.396857E1,9.549847E1,4.548702E1,3.7929526E2,8.395738E1,1.7074806E2,1.6522714E2,1.0341086E3,7.199852E1,2.3499943E1,2.973917E1,1.57478485E1,4.7499948E0,1.6599806E2,4.9999294E0,1.6022722E2,1.01785913E3,1.6249535E1,7.4999614E0,6.4498566E1,1.4999962E1,8.499981E0,1.0998315E1,4.749533E0],"tree_param":{"num_deleted":"0","num_feature":"10","num_nodes":"35","size_leaf_vector":"1"}},{"base_weights":[5.0590068E-5,4.694668E-1,-1.5008988E0,-1.3197651E0,1.4557781E0,2.3555407E-1,-1.837993E0,2.5663492E-1,-1.8657435E0,1.4820529E0,-1.3245112E-2,3.1260115E-1,-3.8423988E-3,-2.2700997E-2,-4.4428998E-1,3.5737514E-1,-0E0,-2.2485765E-2,-0E0,1.4960185E0,3.7980407E-1,3.6432394E-1,-0E0,3.71677E-2,-1.9978562E-1,-0E0,-6.027518E-3,-1.8499017E-3,4.8469887E-3,9.382049E-4,-2.5023927E-3,1.7988067E-2,-0E0,-6.611785E-3,1.0192598E-2,-0E0,5.206009E-3,-1.7171602E-3,-0E0,6.688149E-4,-0E0,-3.6709635E-3,-0E0,-6.0232467E-4,-0E0],"categories":[],"categories_nodes":[],"categories_segments":[],"categories_sizes":[],"default_left":[0,0,0,0,0,0,0,0,0,0,0,0,0,0,0,0,0,0,0,0,0,0,0,0,0,0,0,0,0,0,0,0,0,0,0,0,0,0,0,0,0,0,0,0,0],"id":3,"left_children":[1,3,5,7,9,11,13,15,17,19,-1,21,23,-1,25,27,29,-1,-1,31,33,35,37,39,41,43,-1,-1,-1,-1,-1,-1,-1,-1,-1,-1,-1,-1,-1,-1,-1,-1,-1,-1,-1],"loss_changes":[1.7300482E3,3.3179658E3,3.4839575E2,5.812206E2,9.0393555E1,2.6056504E0,2.5125488E1,4.623006E0,4.5355225E0,1.09375E1,0E0,2.253852E0,6.180336E-1,0E0,4.4739914E-1,3.9163723E0,9.84656E-1,0E0,0E0,5.925293E-1,1.3448229E1,1.7829857E0,1.3547912E-1,8.533128E-3,6.2192196E-1,1.8552525E-2,0E0,0E0,0E0,0E0,0E0,0E0,0E0,0E0,0E0,0E0,0E0,0E0,0E0,0E0,0E0,0E0,0E0,0E0,0E0],"parents":[2147483647,0,0,1,1,2,2,3,3,4,4,5,5,6,6,7,7,8,8,9,9,11,11,12,12,14,14,15,15,16,16,19,19,20,20,21,21,22,22,23,23,24,24,25,25],"right_children":[2,4,6,8,10,12,14,16,18,20,-1,22,24,-1,26,28,30,-1,-1,32,34,36,38,40,42,44,-1,-1,-1,-1,-1,-1,-1,-1,-1,-1,-1,-1,-1,-1,-1,-1,-1,-1,-1],"split_conditions":[0E0,-3.3333334E-1,-9.997022E-1,-9.999437E-1,4.2909107E-1,-9.9999994E-1,9.344056E-1,-3.6276042E-1,8.810006E-1,8.5628873E-1,-1.3245112E-2,2.655483E-1,-4.0138125E-1,-2.2700997E-2,9.436471E-1,-9.5848185E-1,-9.9999994E-1,-2.2485765E-2,-0E0,-9.950355E-1,6.763744E-1,-6.895313E-1,-9.999718E-1,-9.999999E-1,-9.999998E-1,1.8040876E-1,-6.027518E-3,-1.8499017E-3,4.8469887E-3,9.382049E-4,-2.5023927E-3,1.7988067E-2,-0E0,-6.611785E-3,1.0192598E-2,-0E0,5.206009E-3,-1.7171602E-3,-0E0,6.688149E-4,-0E0,-3.6709635E-3,-0E0,-6.0232467E-4,-0E0],"split_indices":[9,9,2,2,1,5,2,3,2,4,0,3,4,0,4,4,5,0,0,5,2,4,2,5,5,1,0,0,0,0,0,0,0,0,0,0,0,0,0,0,0,0,0,0,0],"split_type":[0,0,0,0,0,0,0,0,0,0,0,0,0,0,0,0,0,0,0,0,0,0,0,0,0,0,0,0,0,0,0,0,0,0,0,0,0,0,0,0,0,0,0,0,0],"sum_hessian":[2.4494456E3,1.8697487E3,5.7969684E2,6.629218E2,1.2068269E3,9.324611E1,4.8645074E2,1.6999599E2,4.929258E2,1.1975804E3,9.246375E0,7.749687E1,1.5749235E1,4.657051E2,2.0745646E1,1.2149644E2,4.8499546E1,4.911767E2,1.7490984E0,1.1785828E3,1.899776E1,7.2746956E1,4.749916E0,5.4997764E0,1.0249458E1,3.7493486E0,1.6996296E1,4.499998E0,1.16996445E2,3.6499672E1,1.1999875E1,1.1770837E3,1.4989884E0,4.2495317E0,1.4748229E1,1.3249346E1,5.949761E1,1.7499753E0,2.9999409E0,2.4998882E0,2.999888E0,8.249691E0,1.9997678E0,2.4994133E0,1.2499354E0],"tree_param":{"num_deleted":"0","num_feature":"10","num_nodes":"45","size_leaf_vector":"1"}},{"base_weights":[6.511473E-3,4.747582E-1,-1.4847839E0,-1.2982986E0,1.4534063E0,2.4424987E-1,-1.8180628E0,2.4793173E-1,-1.8427944E0,1.4803636E0,-1.3322051E-2,3.4922922E-1,-0E0,-2.2401858E-2,-5.040614E-1,3.4862477E-1,-0E0,-2.2209497E-2,-0E0,7.912628E-1,1.5452895E0,4.1472536E-1,-0E0,-1.4136736E-1,-0E0,-9.96658E-3,-3.1492695E-2,-1.8392426E-3,4.7304993E-3,-1.4200187E-3,2.4270823E-3,-3.7021458E-3,1.0504766E-2,1.8736392E-2,4.0515615E-3,6.3943886E-3,-0E0,-2.3828272E-3,-0E0,-3.4772248E-3,-0E0,1.4642924E-3,-0E0,2.2086917E-5,-2.551954E-3],"categories":[],"categories_nodes":[],"categories_segments":[],"categories_sizes":[],"default_left":[0,0,0,0,0,0,0,0,0,0,0,0,0,0,0,0,0,0,0,0,0,0,0,0,0,0,0,0,0,0,0,0,0,0,0,0,0,0,0,0,0,0,0,0,0],"id":4,"left_children":[1,3,5,7,9,11,13,15,17,19,-1,21,23,-1,25,27,29,-1,-1,31,33,35,37,39,41,-1,43,-1,-1,-1,-1,-1,-1,-1,-1,-1,-1,-1,-1,-1,-1,-1,-1,-1,-1],"loss_changes":[1.7111788E3,3.2527224E3,3.4338794E2,5.6733594E2,9.236914E1,3.3688493E0,1.9392334E1,4.684717E0,4.4056396E0,4.165332E1,0E0,2.782631E0,2.7244803E-1,0E0,1.5728779E0,3.8027105E0,1.330828E0,0E0,0E0,1.34048E1,1.1121338E1,3.4971876E0,2.9037353E-1,5.7624114E-1,1.7649318E-1,0E0,6.528613E-1,0E0,0E0,0E0,0E0,0E0,0E0,0E0,0E0,0E0,0E0,0E0,0E0,0E0,0E0,0E0,0E0,0E0,0E0],"parents":[2147483647,0,0,1,1,2,2,3,3,4,4,5,5,6,6,7,7,8,8,9,9,11,11,12,12,14,14,15,15,16,16,19,19,20,20,21,21,22,22,23,23,24,24,26,26],"right_children":[2,4,6,8,10,12,14,16,18,20,-1,22,24,-1,26,28,30,-1,-1,32,34,36,38,40,42,-1,44,-1,-1,-1,-1,-1,-1,-1,-1,-1,-1,-1,-1,-1,-1,-1,-1,-1,-1],"split_conditions":[0E0,-3.3333334E-1,-9.997022E-1,-9.999437E-1,4.2909107E-1,4.4129986E-1,9.344056E-1,-3.6276042E-1,8.810006E-1,-7.1605515E-1,-1.3322051E-2,2.4464977E-1,5.759473E-1,-2.2401858E-2,-7.236465E-1,-9.5848185E-1,-9.999718E-1,-2.2209497E-2,-0E0,-9.9613774E-1,8.4372675E-1,-9.999718E-1,-9.9999195E-1,-8.7113976E-1,-8.951537E-1,-9.96658E-3,9.583677E-1,-1.8392426E-3,4.7304993E-3,-1.4200187E-3,2.4270823E-3,-3.7021458E-3,1.0504766E-2,1.8736392E-2,4.0515615E-3,6.3943886E-3,-0E0,-2.3828272E-3,-0E0,-3.4772248E-3,-0E0,1.4642924E-3,-0E0,2.2086917E-5,-2.551954E-3],"split_indices":[9,9,2,2,1,0,2,3,2,0,0,3,0,0,0,4,2,0,0,0,4,2,2,3,3,0,4,0,0,0,0,0,0,0,0,0,0,0,0,0,0,0,0,0,0],"split_type":[0,0,0,0,0,0,0,0,0,0,0,0,0,0,0,0,0,0,0,0,0,0,0,0,0,0,0,0,0,0,0,0,0,0,0,0,0,0,0,0,0,0,0,0,0],"sum_hessian":[2.444401E3,1.8641321E3,5.8026874E2,6.614846E2,1.2026475E3,9.27444E1,4.8752435E2,1.7174207E2,4.8974252E2,1.193154E3,9.493372E0,7.049447E1,2.2249931E1,4.6703018E2,2.049416E1,1.2299255E2,4.874951E1,4.8799344E2,1.7490984E0,1.116742E2,1.0814799E3,6.474464E1,5.7498355E0,8.749964E0,1.3499968E1,6.7466574E0,1.3747501E1,4.499997E0,1.1849255E2,3.449963E1,1.4249881E1,4.749957E0,1.0692425E2,1.0654828E3,1.5997142E1,4.9745953E1,1.4998684E1,2.4999268E0,3.2499087E0,5.2499814E0,3.4999828E0,6.999984E0,6.499984E0,3.7496016E0,9.9979E0],"tree_param":{"num_deleted":"0","num_feature":"10","num_nodes":"45","size_leaf_vector":"1"}},{"base_weights":[1.5144992E-3,4.6264288E-1,-1.4632869E0,-1.2925186E0,1.4282186E0,2.1479744E-1,-1.7963898E0,2.2434486E-1,-1.8228296E0,1.4548693E0,-1.3219828E-2,2.9152876E-1,-2.974343E-2,-2.2159055E-2,-4.7606242E-1,2.816848E-1,-2.8641706E-3,-2.1970429E-2,-0E0,7.586875E-1,1.5220572E0,-2.0532224E-3,3.4770542E-1,-0E0,-1.7981476E-1,-7.1715214E-3,-0E0,6.640364E-3,2.154145E-3,-2.8431672E-3,1.7580634E-4,-3.8799525E-3,1.0033727E-2,1.720696E-2,2.164089E-2,-1.2542992E-3,-0E0,-0E0,4.9859355E-3,1.6471609E-3,-0E0,-3.523185E-3,-0E0],"categories":[],"categories_nodes":[],"categories_segments":[],"categories_sizes":[],"default_left":[0,0,0,0,0,0,0,0,0,0,0,0,0,0,0,0,0,0,0,0,0,0,0,0,0,0,0,0,0,0,0,0,0,0,0,0,0,0,0,0,0,0,0],"id":5,"left_children":[1,3,5,7,9,11,13,15,17,19,-1,21,23,-1,25,27,29,-1,-1,31,33,35,37,39,41,-1,-1,-1,-1,-1,-1,-1,-1,-1,-1,-1,-1,-1,-1,-1,-1,-1,-1],"loss_changes":[1.6539778E3,3.1727217E3,3.3341504E2,5.402622E2,9.0085205E1,2.5907135E0,2.080188E1,2.9986649E0,6.1972656E0,4.455957E1,0E0,2.283351E0,4.3082747E-1,0E0,1.5407329E0,1.774682E0,7.121357E-1,0E0,0E0,1.2422508E1,6.3498535E0,1.0493093E-1,2.2992382E0,1.857328E-1,5.728593E-1,0E0,0E0,0E0,0E0,0E0,0E0,0E0,0E0,0E0,0E0,0E0,0E0,0E0,0E0,0E0,0E0,0E0,0E0],"parents":[2147483647,0,0,1,1,2,2,3,3,4,4,5,5,6,6,7,7,8,8,9,9,11,11,12,12,14,14,15,15,16,16,19,19,20,20,21,21,22,22,23,23,24,24],"right_children":[2,4,6,8,10,12,14,16,18,20,-1,22,24,-1,26,28,30,-1,-1,32,34,36,38,40,42,-1,-1,-1,-1,-1,-1,-1,-1,-1,-1,-1,-1,-1,-1,-1,-1,-1,-1],"split_conditions":[0E0,-3.3333334E-1,-9.997022E-1,-9.999437E-1,4.2909107E-1,-9.9999994E-1,9.344056E-1,1.9566761E-1,8.810006E-1,-7.0992875E-1,-1.3219828E-2,-8.9119E-1,-1.07811145E-1,-2.2159055E-2,3.488713E-1,-7.929014E-1,2.4464977E-1,-2.1970429E-2,-0E0,-9.9613774E-1,7.9156953E-1,-9.9999195E-1,-9.95543E-1,-2.6282582E-1,-9.999997E-1,-7.1715214E-3,-0E0,6.640364E-3,2.154145E-3,-2.8431672E-3,1.7580634E-4,-3.8799525E-3,1.0033727E-2,1.720696E-2,2.164089E-2,-1.2542992E-3,-0E0,-0E0,4.9859355E-3,1.6471609E-3,-0E0,-3.523185E-3,-0E0],"split_indices":[9,9,2,2,1,5,2,3,2,0,0,0,0,0,0,0,3,0,0,0,0,2,3,3,5,0,0,0,0,0,0,0,0,0,0,0,0,0,0,0,0,0,0],"split_type":[0,0,0,0,0,0,0,0,0,0,0,0,0,0,0,0,0,0,0,0,0,0,0,0,0,0,0,0,0,0,0,0,0,0,0,0,0,0,0,0,0,0,0],"sum_hessian":[2.442676E3,1.8616914E3,5.8098474E2,6.591778E2,1.2025135E3,9.5240906E1,4.8574387E2,1.7023717E2,4.8894064E2,1.1930239E3,9.489613E0,7.974205E1,1.5498858E1,4.6500156E2,2.07423E1,1.4398741E2,2.6249756E1,4.8769128E2,1.249356E0,1.1363745E2,1.0793865E3,6.249677E0,7.349237E1,6.499486E0,8.9993725E0,1.5743E1,4.9993005E0,2.6747692E1,1.1723972E2,7.74992E0,1.8499838E1,4.24999E0,1.0938746E2,8.459118E2,2.3347469E2,4.74974E0,1.4999373E0,9.99898E0,6.3493393E1,4.999593E0,1.4998934E0,6.999652E0,1.9997203E0],"tree_param":{"num_deleted":"0","num_feature":"10","num_nodes":"43","size_leaf_vector":"1"}},{"base_weights":[-8.308183E-3,4.502246E-1,-1.462206E0,-1.2858869E0,1.4096148E0,1.7749907E-1,-1.7828326E0,2.2658637E-1,-1.806318E0,1.4360034E0,-1.31191425E-2,2.8315273E-1,-5.3123873E-2,-2.1933516E-2,-5.6316763E-1,1.8863525E-2,3.6166716E-1,-2.174676E-2,-0E0,7.658045E-1,1.5009063E0,3.5105368E-1,-0E0,-0E0,-1.4876376E-1,-8.077998E-3,-0E0,1.7573169E-3,-1.8694293E-3,5.0042477E-3,-0E0,-4.397816E-3,1.0189567E-2,1.8198105E-2,4.0857345E-3,-0E0,5.055133E-3,-0E0,-1.5925501E-3,1.0917938E-3,-3.7450838E-4,-0E0,-4.4579674E-3],"categories":[],"categories_nodes":[],"categories_segments":[],"categories_sizes":[],"default_left":[0,0,0,0,0,0,0,0,0,0,0,0,0,0,0,0,0,0,0,0,0,0,0,0,0,0,0,0,0,0,0,0,0,0,0,0,0,0,0,0,0,0,0],"id":6,"left_children":[1,3,5,7,9,11,13,15,17,19,-1,21,23,-1,25,27,29,-1,-1,31,33,35,37,39,41,-1,-1,-1,-1,-1,-1,-1,-1,-1,-1,-1,-1,-1,-1,-1,-1,-1,-1],"loss_changes":[1.6433855E3,3.1235842E3,3.1659326E2,5.3115686E2,8.8251465E1,3.0953405E0,1.4712036E1,3.8718433E0,2.4816895E0,4.0704346E1,0E0,2.0472493E0,2.1194786E-1,0E0,1.0035057E0,1.8902508E0,1.9972353E0,0E0,0E0,1.3850632E1,9.988037E0,2.2995758E0,1.253079E-1,9.7642496E-2,1.1731331E0,0E0,0E0,0E0,0E0,0E0,0E0,0E0,0E0,0E0,0E0,0E0,0E0,0E0,0E0,0E0,0E0,0E0,0E0],"parents":[2147483647,0,0,1,1,2,2,3,3,4,4,5,5,6,6,7,7,8,8,9,9,11,11,12,12,14,14,15,15,16,16,19,19,20,20,21,21,22,22,23,23,24,24],"right_children":[2,4,6,8,10,12,14,16,18,20,-1,22,24,-1,26,28,30,-1,-1,32,34,36,38,40,42,-1,-1,-1,-1,-1,-1,-1,-1,-1,-1,-1,-1,-1,-1,-1,-1,-1,-1],"split_conditions":[0E0,-3.3333334E-1,-9.997022E-1,-9.999437E-1,4.2909107E-1,4.4129986E-1,9.344056E-1,2.857143E-1,9.214397E-1,-7.0992875E-1,-1.31191425E-2,-9.999517E-1,1.4369941E-1,-2.1933516E-2,3.488713E-1,-9.9999994E-1,6.955508E-1,-2.174676E-2,-0E0,-9.9613774E-1,8.4372675E-1,-8.9119E-1,1.5269361E-1,-1.4285715E-1,-9.9999595E-1,-8.077998E-3,-0E0,1.7573169E-3,-1.8694293E-3,5.0042477E-3,-0E0,-4.397816E-3,1.0189567E-2,1.8198105E-2,4.0857345E-3,-0E0,5.055133E-3,-0E0,-1.5925501E-3,1.0917938E-3,-3.7450838E-4,-0E0,-4.4579674E-3],"split_indices":[9,9,2,2,1,0,2,8,2,0,0,2,4,0,0,5,4,0,0,0,4,0,0,8,2,0,0,0,0,0,0,0,0,0,0,0,0,0,0,0,0,0,0],"split_type":[0,0,0,0,0,0,0,0,0,0,0,0,0,0,0,0,0,0,0,0,0,0,0,0,0,0,0,0,0,0,0,0,0,0,0,0,0,0,0,0,0,0,0],"sum_hessian":[2.4515156E3,1.8649545E3,5.865612E2,6.622392E2,1.2027153E3,9.498797E1,4.9157324E2,1.6898317E2,4.93256E2,1.1932302E3,9.48505E0,7.198821E1,2.2999756E1,4.7058374E2,2.0989477E1,7.624221E1,9.274095E1,4.9200665E2,1.249356E0,1.1434913E2,1.0788811E3,6.173927E1,1.0248942E1,1.4749839E1,8.249916E0,1.5490294E1,5.499182E0,5.29947E1,2.324751E1,8.0241615E1,1.249934E1,4.499993E0,1.0984913E2,1.0626404E3,1.6240826E1,7.2496552E0,5.4489616E1,7.999321E0,2.2496212E0,5.24994E0,9.499899E0,2.4999883E0,5.749928E0],"tree_param":{"num_deleted":"0","num_feature":"10","num_nodes":"43","size_leaf_vector":"1"}},{"base_weights":[2.5333648E-3,4.553244E-1,-1.4491508E0,-1.2600274E0,1.3997614E0,-5.8384424E-1,-1.7557628E0,-4.0128008E-1,-2.1390164E-2,1.4252986E0,-1.2844101E-2,-2.010044E-2,1.7873581E-1,-1.21084135E-2,-2.1903088E-2,-2.041506E-2,2.3112488E-1,7.628354E-1,1.4892735E0,2.9706535E-1,-6.8710685E-2,4.087679E-3,-0E0,-3.0894643E-3,1.004775E-2,1.8072072E-2,2.747052E-3,-0E0,4.3151877E-3,-1.8551119E-3,-0E0],"categories":[],"categories_nodes":[],"categories_segments":[],"categories_sizes":[],"default_left":[0,0,0,0,0,0,0,0,0,0,0,0,0,0,0,0,0,0,0,0,0,0,0,0,0,0,0,0,0,0,0],"id":7,"left_children":[1,3,5,7,9,11,13,15,-1,17,-1,-1,19,-1,-1,-1,21,23,25,27,29,-1,-1,-1,-1,-1,-1,-1,-1,-1,-1],"loss_changes":[1.604657E3,3.0305261E3,1.4288855E2,2.875304E2,8.439136E1,1.3919812E2,5.086914E0,2.1793831E2,0E0,3.9416992E1,0E0,0E0,3.5493922E0,0E0,0E0,0E0,5.2939835E0,1.1439659E1,1.4162598E1,2.1167526E0,4.7588295E-1,0E0,0E0,0E0,0E0,0E0,0E0,0E0,0E0,0E0,0E0],"parents":[2147483647,0,0,1,1,2,2,3,3,4,4,5,5,6,6,7,7,9,9,12,12,16,16,17,17,18,18,19,19,20,20],"right_children":[2,4,6,8,10,12,14,16,-1,18,-1,-1,20,-1,-1,-1,22,24,26,28,30,-1,-1,-1,-1,-1,-1,-1,-1,-1,-1],"split_conditions":[0E0,-3.3333334E-1,-9.996071E-1,-9.996071E-1,4.2909107E-1,-9.996127E-1,-7.1428573E-1,-9.996127E-1,-2.1390164E-2,-7.0992875E-1,-1.2844101E-2,-2.010044E-2,4.4129986E-1,-1.21084135E-2,-2.1903088E-2,-2.041506E-2,-3.6276042E-1,-9.9613774E-1,8.4372675E-1,-8.9119E-1,-1.6726401E-1,4.087679E-3,-0E0,-3.0894643E-3,1.004775E-2,1.8072072E-2,2.747052E-3,-0E0,4.3151877E-3,-1.8551119E-3,-0E0],"split_indices":[9,9,1,1,1,1,8,1,0,0,0,0,0,0,0,0,3,0,4,0,3,0,0,0,0,0,0,0,0,0,0],"split_type":[0,0,0,0,0,0,0,0,0,0,0,0,0,0,0,0,0,0,0,0,0,0,0,0,0,0,0,0,0,0,0],"sum_hessian":[2.4353328E3,1.8602274E3,5.751053E2,6.589879E2,1.2012396E3,1.5635913E2,4.1874615E2,2.5373557E2,4.0525235E2,1.1920093E3,9.230243E0,6.3374413E1,9.298472E1,4.4103592E1,3.7464255E2,8.175755E1,1.71978E2,1.1405519E2,1.0779541E3,6.9235E1,2.3749718E1,1.2247931E2,4.949869E1,4.4999456E0,1.09555244E2,1.0624644E3,1.5489749E1,6.9996734E0,6.223533E1,2.074974E1,2.9999783E0],"tree_param":{"num_deleted":"0","num_feature":"10","num_nodes":"31","size_leaf_vector":"1"}},{"base_weights":[-0E0,4.486116E-1,-1.4296702E0,-1.2539217E0,1.3896173E0,2.2538504E-1,-1.7419099E0,2.33964E-1,-1.7709522E0,1.4145782E0,-1.2567148E-2,2.9167432E-1,-0E0,-2.1485824E-2,-6.306124E-3,-0E0,3.1082836E-1,-2.1321325E-2,-0E0,1.4274967E0,3.7703252E-1,3.69102E-1,-0E0,-0E0,-8.0423785E-4,-1.3552012E-3,1.2662179E-3,4.412094E-3,-0E0,1.7164836E-2,-0E0,-6.236947E-3,9.843189E-3,-0E0,5.6679198E-3,-6.453903E-4,-0E0,-0E0,4.3524752E-4],"categories":[],"categories_nodes":[],"categories_segments":[],"categories_sizes":[],"default_left":[0,0,0,0,0,0,0,0,0,0,0,0,0,0,0,0,0,0,0,0,0,0,0,0,0,0,0,0,0,0,0,0,0,0,0,0,0,0,0],"id":8,"left_children":[1,3,5,7,9,11,13,15,17,19,-1,21,23,-1,-1,25,27,-1,-1,29,31,33,35,37,-1,-1,-1,-1,-1,-1,-1,-1,-1,-1,-1,-1,-1,-1,-1],"loss_changes":[1.5541261E3,2.9654187E3,3.0482544E2,5.125342E2,8.06228E1,2.0606437E0,1.706018E1,2.6740274E0,1.555542E0,8.609863E0,0E0,2.128119E0,3.0837327E-2,0E0,0E0,6.672882E-1,2.1395512E0,0E0,0E0,6.7456055E-1,1.2203108E1,2.8692408E0,3.1397145E-2,1.3623749E-2,0E0,0E0,0E0,0E0,0E0,0E0,0E0,0E0,0E0,0E0,0E0,0E0,0E0,0E0,0E0],"parents":[2147483647,0,0,1,1,2,2,3,3,4,4,5,5,6,6,7,7,8,8,9,9,11,11,12,12,15,15,16,16,19,19,20,20,21,21,22,22,23,23],"right_children":[2,4,6,8,10,12,14,16,18,20,-1,22,24,-1,-1,26,28,-1,-1,30,32,34,36,38,-1,-1,-1,-1,-1,-1,-1,-1,-1,-1,-1,-1,-1,-1,-1],"split_conditions":[0E0,-3.3333334E-1,-9.997022E-1,-9.999437E-1,4.2909107E-1,-9.9999994E-1,9.344056E-1,-6.666667E-1,8.810006E-1,8.5628873E-1,-1.2567148E-2,7.7030915E-1,4.594934E-1,-2.1485824E-2,-6.306124E-3,-3.288005E-1,6.4895934E-1,-2.1321325E-2,-0E0,-9.950355E-1,6.763744E-1,-6.895313E-1,9.0937036E-1,-8.784338E-3,-8.0423785E-4,-1.3552012E-3,1.2662179E-3,4.412094E-3,-0E0,1.7164836E-2,-0E0,-6.236947E-3,9.843189E-3,-0E0,5.6679198E-3,-6.453903E-4,-0E0,-0E0,4.3524752E-4],"split_indices":[9,9,2,2,1,5,2,9,2,4,0,4,4,0,0,4,4,0,0,5,2,4,4,4,0,0,0,0,0,0,0,0,0,0,0,0,0,0,0],"split_type":[0,0,0,0,0,0,0,0,0,0,0,0,0,0,0,0,0,0,0,0,0,0,0,0,0,0,0,0,0,0,0,0,0,0,0,0,0,0,0],"sum_hessian":[2.4143176E3,1.8405546E3,5.737631E2,6.5362616E2,1.1869283E3,8.998023E1,4.837829E2,1.679715E2,4.8565466E2,1.1779532E3,8.975079E0,7.598258E1,1.3997658E1,4.6180588E2,2.1977028E1,4.7242184E1,1.2072931E2,4.8415677E2,1.4979069E0,1.1592192E3,1.8734034E1,6.123505E1,1.4747527E1,1.1997861E1,1.9997969E0,1.6246536E1,3.099565E1,1.0098124E2,1.9748068E1,1.1577242E3,1.4950163E0,3.9981594E0,1.4735875E1,1.274716E1,4.8487892E1,5.998756E0,8.748772E0,6.498934E0,5.4989266E0],"tree_param":{"num_deleted":"0","num_feature":"10","num_nodes":"39","size_leaf_vector":"1"}},{"base_weights":[-1.5741067E-3,4.3881366E-1,-1.4157642E0,-1.2370129E0,1.365647E0,-5.6209904E-1,-1.7168403E0,-3.9950755E-1,-2.0965636E-2,1.3915428E0,-1.2829867E-2,-1.9567514E-2,2.0178267E-1,-9.5849836E-1,-2.1473492E-2,-2.0063896E-2,2.4326032E-1,8.4021807E-1,1.4717612E0,3.119957E-1,-3.5891946E-2,-1.3601948E-2,-3.2094494E-1,3.3956552E-3,-0E0,-4.9573146E-3,1.087666E-2,1.6592346E-2,2.0898795E-2,4.655243E-3,-0E0,-1.7036034E-3,-0E0,-5.3077717E-3,-0E0],"categories":[],"categories_nodes":[],"categories_segments":[],"categories_sizes":[],"default_left":[0,0,0,0,0,0,0,0,0,0,0,0,0,0,0,0,0,0,0,0,0,0,0,0,0,0,0,0,0,0,0,0,0,0,0],"id":9,"left_children":[1,3,5,7,9,11,13,15,-1,17,-1,-1,19,21,-1,-1,23,25,27,29,31,-1,33,-1,-1,-1,-1,-1,-1,-1,-1,-1,-1,-1,-1],"loss_changes":[1.5205667E3,2.893421E3,1.3857788E2,2.731521E2,8.365454E1,1.362118E2,7.26001E0,2.1674312E2,0E0,4.066626E1,0E0,0E0,3.2916253E0,4.1923523E-3,0E0,0E0,1.956665E0,1.6654915E1,5.2702637E0,2.0596085E0,2.3847899E-1,0E0,9.2324305E-1,0E0,0E0,0E0,0E0,0E0,0E0,0E0,0E0,0E0,0E0,0E0,0E0],"parents":[2147483647,0,0,1,1,2,2,3,3,4,4,5,5,6,6,7,7,9,9,12,12,13,13,16,16,17,17,18,18,19,19,20,20,22,22],"right_children":[2,4,6,8,10,12,14,16,-1,18,-1,-1,20,22,-1,-1,24,26,28,30,32,-1,34,-1,-1,-1,-1,-1,-1,-1,-1,-1,-1,-1,-1],"split_conditions":[0E0,-3.3333334E-1,-9.996071E-1,-9.996071E-1,4.2909107E-1,-9.996127E-1,-7.1428573E-1,-9.996127E-1,-2.0965636E-2,-6.1257243E-1,-1.2829867E-2,-1.9567514E-2,4.4129986E-1,-1.3836578E-1,-2.1473492E-2,-2.0063896E-2,-9.999997E-1,-9.9613774E-1,7.9156953E-1,7.320337E-1,5.759473E-1,-1.3601948E-2,2.730905E-1,3.3956552E-3,-0E0,-4.9573146E-3,1.087666E-2,1.6592346E-2,2.0898795E-2,4.655243E-3,-0E0,-1.7036034E-3,-0E0,-5.3077717E-3,-0E0],"split_indices":[9,9,1,1,1,1,8,1,0,0,0,0,0,1,0,0,5,0,0,4,0,0,0,0,0,0,0,0,0,0,0,0,0,0,0],"split_type":[0,0,0,0,0,0,0,0,0,0,0,0,0,0,0,0,0,0,0,0,0,0,0,0,0,0,0,0,0,0,0,0,0,0,0],"sum_hessian":[2.4277656E3,1.8524575E3,5.753081E2,6.5811395E2,1.1943436E3,1.5586548E2,4.1944263E2,2.5365004E2,4.044639E2,1.1848765E3,9.467058E0,6.413916E1,9.172632E1,4.4772015E1,3.7467062E2,8.393466E1,1.6971538E2,1.6166945E2,1.0232071E3,6.897676E1,2.274956E1,2.9060253E1,1.5711761E1,1.4896925E2,2.0746122E1,4.749919E0,1.5691953E2,7.936149E2,2.2959215E2,5.672939E1,1.2247371E1,8.749842E0,1.3999718E1,1.0718208E1,4.9935527E0],"tree_param":{"num_deleted":"0","num_feature":"10","num_nodes":"35","size_leaf_vector":"1"}},{"base_weights":[-2.0102279E-3,4.32187E-1,-1.4002178E0,-1.2298107E0,1.3493141E0,1.5856768E-1,-1.7099395E0,2.2245814E-1,-1.7373614E0,7.307344E-1,1.446956E0,2.6662707E-1,-7.03444E-2,-2.1099877E-2,-4.4395792E-1,-0E0,2.8824458E-1,-2.0940224E-2,-0E0,-6.948613E-3,8.138703E-1,1.4610785E0,2.83702E-1,3.4551683E-1,-5.3156936E-3,-0E0,-2.6658416E-1,-9.837828E-3,-0E0,-8.1046385E-4,1.9007162E-3,5.2410886E-3,5.963763E-4,1.0850276E-2,-0E0,1.6428923E-2,2.0838264E-2,-4.9618436E-3,8.731382E-3,-0E0,4.9511488E-3,-0E0,-1.5703568E-3,-1.2299515E-3,1.8082267E-3,-0E0,-5.1163775E-3,8.8141713E-4,-1.8005965E-3],"categories":[],"categories_nodes":[],"categories_segments":[],"categories_sizes":[],"default_left":[0,0,0,0,0,0,0,0,0,0,0,0,0,0,0,0,0,0,0,0,0,0,0,0,0,0,0,0,0,0,0,0,0,0,0,0,0,0,0,0,0,0,0,0,0,0,0,0,0],"id":10,"left_children":[1,3,5,7,9,11,13,15,17,19,21,23,25,-1,27,29,31,-1,-1,-1,33,35,37,39,41,43,45,-1,47,-1,-1,-1,-1,-1,-1,-1,-1,-1,-1,-1,-1,-1,-1,-1,-1,-1,-1,-1,-1],"loss_changes":[1.4866517E3,2.8496987E3,2.8563843E2,4.954984E2,6.2018555E1,3.0512667E0,1.8995728E1,1.9160814E0,4.1188965E0,2.2234154E1,1.0462158E1,2.5118861E0,7.763274E-1,0E0,2.9079385E0,8.171116E-1,3.1477385E0,0E0,0E0,0E0,1.2163437E1,6.505371E0,8.6281E0,2.2001095E0,1.2141284E-1,4.5543534E-1,9.671971E-1,0E0,3.8469687E-1,0E0,0E0,0E0,0E0,0E0,0E0,0E0,0E0,0E0,0E0,0E0,0E0,0E0,0E0,0E0,0E0,0E0,0E0,0E0,0E0],"parents":[2147483647,0,0,1,1,2,2,3,3,4,4,5,5,6,6,7,7,8,8,9,9,10,10,11,11,12,12,14,14,15,15,16,16,20,20,21,21,22,22,23,23,24,24,25,25,26,26,28,28],"right_children":[2,4,6,8,10,12,14,16,18,20,22,24,26,-1,28,30,32,-1,-1,-1,34,36,38,40,42,44,46,-1,48,-1,-1,-1,-1,-1,-1,-1,-1,-1,-1,-1,-1,-1,-1,-1,-1,-1,-1,-1,-1],"split_conditions":[0E0,-3.3333334E-1,-9.997022E-1,-9.999437E-1,-6.1257243E-1,4.4129986E-1,9.344056E-1,-6.666667E-1,8.810006E-1,-9.9613774E-1,8.4372675E-1,-9.999517E-1,1.4369941E-1,-2.1099877E-2,-6.8529E-1,4.2857143E-1,9.0322964E-2,-2.0940224E-2,-0E0,-6.948613E-3,-9.999997E-1,7.9156953E-1,6.32068E-1,-8.9119E-1,1.5269361E-1,-7.617127E-1,-9.9999595E-1,-9.837828E-3,9.583677E-1,-8.1046385E-4,1.9007162E-3,5.2410886E-3,5.963763E-4,1.0850276E-2,-0E0,1.6428923E-2,2.0838264E-2,-4.9618436E-3,8.731382E-3,-0E0,4.9511488E-3,-0E0,-1.5703568E-3,-1.2299515E-3,1.8082267E-3,-0E0,-5.1163775E-3,8.8141713E-4,-1.8005965E-3],"split_indices":[9,9,2,2,0,0,2,9,2,0,4,2,4,0,0,6,4,0,0,0,5,0,2,0,0,4,2,0,4,0,0,0,0,0,0,0,0,0,0,0,0,0,0,0,0,0,0,0,0],"split_type":[0,0,0,0,0,0,0,0,0,0,0,0,0,0,0,0,0,0,0,0,0,0,0,0,0,0,0,0,0,0,0,0,0,0,0,0,0,0,0,0,0,0,0,0,0,0,0,0,0],"sum_hessian":[2.4349556E3,1.8591593E3,5.757964E2,6.5952625E2,1.199633E3,9.446935E1,4.8132706E2,1.7020805E2,4.893182E2,1.7276413E2,1.0268689E3,7.1219864E1,2.3249489E1,4.606109E2,2.0716154E1,4.774034E1,1.2246771E2,4.875721E2,1.7461005E0,6.742513E0,1.6602162E2,1.0111439E3,1.5724936E1,6.14724E1,9.747461E0,1.5249647E1,7.999842E0,6.980457E0,1.3735697E1,2.5495651E1,2.224469E1,6.647834E1,5.5989372E1,1.4884505E2,1.717658E1,7.8174567E2,2.293983E2,3.9965966E0,1.1728339E1,6.7492385E0,5.472316E1,7.49863E0,2.248832E0,4.24998E0,1.0999667E1,2.4999712E0,5.4998713E0,3.4976568E0,1.023804E1],"tree_param":{"num_deleted":"0","num_feature":"10","num_nodes":"49","size_leaf_vector":"1"}},{"base_weights":[-9.833473E-3,-1.7682198E-1,1.4384705E0,-8.076589E-1,7.64846E-2,8.78237E-1,2.0859541E-2,1.7754705E-1,-9.632352E-1,6.120821E-1,-3.0240659E-2,1.1441331E-2,-1.1849156E-1,3.4657088E-1,-0E0,-1.4629747E0,-7.846348E-1,1.9442767E-1,1.270847E0,-3.0362684E-1,2.4896516E-1,-0E0,-2.4020032E-3,5.8254865E-3,-1.7742058E-3,-2.9432417E-3,1.9329524E-3,-0E0,-1.778374E-2,-1.8795663E-3,-1.0815214E-2,8.6538335E-3,-4.3145134E-3,8.40316E-3,1.7877791E-2,2.1296383E-3,-5.511081E-3,1.6994655E-2,5.423124E-4],"categories":[],"categories_nodes":[],"categories_segments":[],"categories_sizes":[],"default_left":[0,0,0,0,0,0,0,0,0,0,0,0,0,0,0,0,0,0,0,0,0,0,0,0,0,0,0,0,0,0,0,0,0,0,0,0,0,0,0],"id":11,"left_children":[1,3,5,7,9,11,-1,13,15,17,19,-1,21,23,25,27,29,31,33,35,37,-1,-1,-1,-1,-1,-1,-1,-1,-1,-1,-1,-1,-1,-1,-1,-1,-1,-1],"loss_changes":[5.867882E2,3.5191806E2,2.76604E1,9.94664E1,9.0935E1,1.0047981E1,0E0,3.1002865E0,3.7504242E1,6.766715E1,1.0005606E2,0E0,1.7959909E-1,4.551907E0,2.0336838E0,3.5417786E0,2.6910645E1,5.1572178E1,1.6252899E0,5.0758743E1,1.4876791E2,0E0,0E0,0E0,0E0,0E0,0E0,0E0,0E0,0E0,0E0,0E0,0E0,0E0,0E0,0E0,0E0,0E0,0E0],"parents":[2147483647,0,0,1,1,2,2,3,3,4,4,5,5,7,7,8,8,9,9,10,10,12,12,13,13,14,14,15,15,16,16,17,17,18,18,19,19,20,20],"right_children":[2,4,6,8,10,12,-1,14,16,18,20,-1,22,24,26,28,30,32,34,36,38,-1,-1,-1,-1,-1,-1,-1,-1,-1,-1,-1,-1,-1,-1,-1,-1,-1,-1],"split_conditions":[8.0422187E-1,-6.1257243E-1,9.1875875E-1,-9.997022E-1,-7.96365E-1,8.3354217E-1,2.0859541E-2,-7.929014E-1,-9.545848E-1,-8.667911E-1,-3.2306224E-1,1.1441331E-2,-9.9927163E-1,1.8560286E-1,-8.332402E-2,-9.855932E-1,-7.3341733E-1,-9.385168E-1,-7.852127E-1,-9.997022E-1,-2.3839909E-1,-0E0,-2.4020032E-3,5.8254865E-3,-1.7742058E-3,-2.9432417E-3,1.9329524E-3,-0E0,-1.778374E-2,-1.8795663E-3,-1.0815214E-2,8.6538335E-3,-4.3145134E-3,8.40316E-3,1.7877791E-2,2.1296383E-3,-5.511081E-3,1.6994655E-2,5.423124E-4],"split_indices":[0,0,0,2,4,4,0,0,0,2,2,0,2,3,4,4,4,4,2,2,4,0,0,0,0,0,0,0,0,0,0,0,0,0,0,0,0,0,0],"split_type":[0,0,0,0,0,0,0,0,0,0,0,0,0,0,0,0,0,0,0,0,0,0,0,0,0,0,0,0,0,0,0,0,0,0,0,0,0,0,0],"sum_hessian":[2.4295737E3,2.1838323E3,2.457415E2,6.2549835E2,1.5583339E3,9.4937584E1,1.5080392E2,8.2967094E1,5.4253125E2,2.590661E2,1.2992678E3,9.096672E1,3.9708626E0,4.3984936E1,3.898216E1,1.2982701E2,4.1270422E2,1.6479424E2,9.427186E1,6.608889E2,6.3837885E2,1.2497172E0,2.7211454E0,3.8485672E1,5.4992642E0,1.7739546E1,2.1242613E1,1.4876097E0,1.283394E2,6.932357E1,3.4338065E2,8.6127205E1,7.866703E1,3.487393E1,5.9397926E1,1.5694888E2,5.0394003E2,8.884044E1,5.495384E2],"tree_param":{"num_deleted":"0","num_feature":"10","num_nodes":"39","size_leaf_vector":"1"}},{"base_weights":[-1.1003831E-2,4.234385E-1,-1.3961655E0,-1.2191993E0,1.3301833E0,1.4180218E-1,-1.6937182E0,2.2172317E-1,-1.7169824E0,1.3456532E0,2.9605618E-1,2.1489799E-1,-6.454832E-2,-2.0842586E-2,-6.509491E-3,3.1700578E-1,-0E0,-2.0694923E-2,-0E0,1.6180383E-2,-0E0,-6.4749103E-3,7.1992934E-1,-1.6345322E-2,2.9739454E-1,2.6863663E-2,-2.827097E-1,-1.3236881E-3,4.3269712E-3,-1.6201892E-3,2.230071E-3,9.343993E-3,-0E0,-0E0,-7.2729826E-4,4.360707E-3,-0E0,5.730883E-4,-0E0,-5.025234E-3,-0E0],"categories":[],"categories_nodes":[],"categories_segments":[],"categories_sizes":[],"default_left":[0,0,0,0,0,0,0,0,0,0,0,0,0,0,0,0,0,0,0,0,0,0,0,0,0,0,0,0,0,0,0,0,0,0,0,0,0,0,0,0,0],"id":12,"left_children":[1,3,5,7,9,11,13,15,17,19,21,23,25,-1,-1,27,29,-1,-1,-1,-1,-1,31,33,35,37,39,-1,-1,-1,-1,-1,-1,-1,-1,-1,-1,-1,-1,-1,-1],"loss_changes":[1.467963E3,2.7674397E3,2.7186157E2,4.7939056E2,1.300415E1,1.9243726E0,1.2733276E1,3.9350538E0,4.043457E0,5.48584E-1,1.1679367E1,2.313598E0,1.0929712E0,0E0,0E0,3.1097803E0,1.4244071E0,0E0,0E0,0E0,0E0,0E0,9.628897E-1,3.3193845E-2,2.1348238E0,9.302925E-3,1.1713983E0,0E0,0E0,0E0,0E0,0E0,0E0,0E0,0E0,0E0,0E0,0E0,0E0,0E0,0E0],"parents":[2147483647,0,0,1,1,2,2,3,3,4,4,5,5,6,6,7,7,8,8,9,9,10,10,11,11,12,12,15,15,16,16,22,22,23,23,24,24,25,25,26,26],"right_children":[2,4,6,8,10,12,14,16,18,20,22,24,26,-1,-1,28,30,-1,-1,-1,-1,-1,32,34,36,38,40,-1,-1,-1,-1,-1,-1,-1,-1,-1,-1,-1,-1,-1,-1],"split_conditions":[0E0,-3.3333334E-1,-9.997022E-1,-9.999437E-1,8.4372675E-1,-9.9999994E-1,9.344056E-1,-3.6276042E-1,8.810006E-1,-9.950355E-1,6.763744E-1,-6.895313E-1,-4.0138125E-1,-2.0842586E-2,-6.509491E-3,-9.5848185E-1,-9.9997586E-1,-2.0694923E-2,-0E0,1.6180383E-2,-0E0,-6.4749103E-3,9.7606814E-1,-9.761937E-1,2.4464977E-1,-9.999999E-1,-9.999997E-1,-1.3236881E-3,4.3269712E-3,-1.6201892E-3,2.230071E-3,9.343993E-3,-0E0,-0E0,-7.2729826E-4,4.360707E-3,-0E0,5.730883E-4,-0E0,-5.025234E-3,-0E0],"split_indices":[9,9,2,2,4,5,2,3,2,5,2,4,4,0,0,4,2,0,0,0,0,0,2,3,3,5,5,0,0,0,0,0,0,0,0,0,0,0,0,0,0],"split_type":[0,0,0,0,0,0,0,0,0,0,0,0,0,0,0,0,0,0,0,0,0,0,0,0,0,0,0,0,0,0,0,0,0,0,0,0,0,0,0,0,0],"sum_hessian":[2.4255825E3,1.8476338E3,5.779487E2,6.5555035E2,1.1920834E3,9.2710846E1,4.8523785E2,1.6769528E2,4.8785507E2,1.1706271E3,2.145638E1,7.746474E1,1.5246111E1,4.6403278E2,2.1205095E1,1.1870026E2,4.899503E1,4.861095E2,1.7455577E0,1.1691343E3,1.4928008E0,4.746524E0,1.6709858E1,1.3245168E1,6.421957E1,5.4983654E0,9.7477455E0,4.749169E0,1.1395109E2,3.1997293E1,1.6997736E1,1.5213369E1,1.4964886E0,7.747238E0,5.4979296E0,5.7721214E1,6.498353E0,2.499153E0,2.9992125E0,8.498167E0,1.2495781E0],"tree_param":{"num_deleted":"0","num_feature":"10","num_nodes":"41","size_leaf_vector":"1"}},{"base_weights":[-0E0,4.2997223E-1,-1.366486E0,-1.1990081E0,1.3288585E0,1.6021922E-1,-1.6748286E0,2.184662E-1,-1.7022945E0,1.3540363E0,-1.2686907E-2,2.758333E-1,-9.022344E-2,-2.0617984E-2,-5.100936E-1,3.237977E-1,-5.9554107E-3,-2.0519976E-2,-0E0,8.2742953E-1,1.4326415E0,3.382475E-1,-1.1172713E-2,-1.7863044E-1,-0E0,-7.1836687E-3,-0E0,-1.3158359E-3,4.3973904E-3,-2.3106602E-3,2.2115647E-3,1.1103127E-2,-0E0,1.619301E-2,2.0173315E-2,5.4764547E-3,-0E0,-2.4605542E-3,-0E0,-0E0,-2.7807325E-3],"categories":[],"categories_nodes":[],"categories_segments":[],"categories_sizes":[],"default_left":[0,0,0,0,0,0,0,0,0,0,0,0,0,0,0,0,0,0,0,0,0,0,0,0,0,0,0,0,0,0,0,0,0,0,0,0,0,0,0,0,0],"id":13,"left_children":[1,3,5,7,9,11,13,15,17,19,-1,21,23,-1,25,27,29,-1,-1,31,33,35,37,39,-1,-1,-1,-1,-1,-1,-1,-1,-1,-1,-1,-1,-1,-1,-1,-1,-1],"loss_changes":[1.4211227E3,2.7019565E3,2.7770886E2,4.7341547E2,7.912744E1,3.5015666E0,1.3226685E1,4.954896E0,4.8616943E0,3.7260498E1,0E0,2.2315617E0,5.788677E-1,0E0,7.0264673E-1,3.1704912E0,2.0664823E0,0E0,0E0,1.3737534E1,2.4521484E0,3.4742422E0,3.0821267E-1,4.6929753E-1,0E0,0E0,0E0,0E0,0E0,0E0,0E0,0E0,0E0,0E0,0E0,0E0,0E0,0E0,0E0,0E0,0E0],"parents":[2147483647,0,0,1,1,2,2,3,3,4,4,5,5,6,6,7,7,8,8,9,9,11,11,12,12,14,14,15,15,16,16,19,19,20,20,21,21,22,22,23,23],"right_children":[2,4,6,8,10,12,14,16,18,20,-1,22,24,-1,26,28,30,-1,-1,32,34,36,38,40,-1,-1,-1,-1,-1,-1,-1,-1,-1,-1,-1,-1,-1,-1,-1,-1,-1],"split_conditions":[0E0,-3.3333334E-1,-9.997022E-1,-9.999437E-1,4.2909107E-1,4.4129986E-1,9.344056E-1,-3.6084065E-1,8.810006E-1,-6.1257243E-1,-1.2686907E-2,2.4464977E-1,-1.6726401E-1,-2.0617984E-2,3.488713E-1,-9.5848185E-1,-9.9997586E-1,-2.0519976E-2,-0E0,-9.9999964E-1,7.9156953E-1,-9.999718E-1,-9.9999195E-1,-4.2857143E-1,-0E0,-7.1836687E-3,-0E0,-1.3158359E-3,4.3973904E-3,-2.3106602E-3,2.2115647E-3,1.1103127E-2,-0E0,1.619301E-2,2.0173315E-2,5.4764547E-3,-0E0,-2.4605542E-3,-0E0,-0E0,-2.7807325E-3],"split_indices":[9,9,2,2,1,0,2,3,2,0,0,3,3,0,0,4,2,0,0,5,0,2,2,6,0,0,0,0,0,0,0,0,0,0,0,0,0,0,0,0,0],"split_type":[0,0,0,0,0,0,0,0,0,0,0,0,0,0,0,0,0,0,0,0,0,0,0,0,0,0,0,0,0,0,0,0,0,0,0,0,0,0,0,0,0],"sum_hessian":[2.408872E3,1.8348381E3,5.740341E2,6.5086E2,1.1839781E3,9.545496E1,4.7857913E2,1.6993353E2,4.8092645E2,1.1747584E3,9.219665E0,7.1956215E1,2.3498749E1,4.5787854E2,2.070059E1,1.2193839E2,4.7995148E1,4.794303E2,1.496164E0,1.6411479E2,1.0106437E3,6.570801E1,6.248212E0,2.0498886E1,2.9998627E0,1.5704196E1,4.9963946E0,4.7492456E0,1.1718914E2,3.09978E1,1.6997345E1,1.4669144E2,1.7423359E1,7.8282697E2,2.2781671E2,5.071456E1,1.4993444E1,2.4993513E0,3.7488606E0,1.4999251E0,1.8998962E1],"tree_param":{"num_deleted":"0","num_feature":"10","num_nodes":"41","size_leaf_vector":"1"}},{"base_weights":[-2.574456E-3,-1.6392672E-1,1.3903458E0,-7.795711E-1,8.566165E-2,8.325945E-1,2.0327548E-2,2.3599909E-1,-9.37948E-1,6.139161E-1,-2.249157E-2,1.0033518E0,3.508091E-1,4.277609E-1,-0E0,-1.7182335E-2,-7.6069677E-1,2.0501526E-1,7.9093146E-1,-1.4389788E-1,3.1483915E-1,-0E0,1.2515391E-2,-0E0,4.8431915E-1,6.6018286E-3,-6.31562E-4,6.1559636E-4,-1.4211428E-3,-1.122383E-2,-6.8322634E-3,6.6824653E-3,3.111028E-4,-4.2570154E-3,1.0667407E-2,-5.090914E-4,-4.3997127E-3,-3.9407038E-4,9.877482E-3,-0E0,-9.0632454E-4,-0E0,6.277105E-3],"categories":[],"categories_nodes":[],"categories_segments":[],"categories_sizes":[],"default_left":[0,0,0,0,0,0,0,0,0,0,0,0,0,0,0,0,0,0,0,0,0,0,0,0,0,0,0,0,0,0,0,0,0,0,0,0,0,0,0,0,0,0,0],"id":14,"left_children":[1,3,5,7,9,11,-1,13,15,17,19,21,23,25,27,-1,29,31,33,35,37,-1,-1,39,41,-1,-1,-1,-1,-1,-1,-1,-1,-1,-1,-1,-1,-1,-1,-1,-1,-1,-1],"loss_changes":[5.4032983E2,3.353288E2,2.8601013E1,1.04048706E2,8.982168E1,3.0520706E0,0E0,3.934525E0,3.682617E1,1.5962639E1,5.2316486E1,1.4968643E0,2.6938677E0,4.209715E0,2.964047E-1,0E0,7.4412384E0,4.1976037E0,2.2881355E1,2.0367748E1,6.1301098E1,0E0,0E0,5.1610902E-2,8.5719204E-1,0E0,0E0,0E0,0E0,0E0,0E0,0E0,0E0,0E0,0E0,0E0,0E0,0E0,0E0,0E0,0E0,0E0,0E0],"parents":[2147483647,0,0,1,1,2,2,3,3,4,4,5,5,7,7,8,8,9,9,10,10,11,11,12,12,13,13,14,14,16,16,17,17,18,18,19,19,20,20,23,23,24,24],"right_children":[2,4,6,8,10,12,-1,14,16,18,20,22,24,26,28,-1,30,32,34,36,38,-1,-1,40,42,-1,-1,-1,-1,-1,-1,-1,-1,-1,-1,-1,-1,-1,-1,-1,-1,-1,-1],"split_conditions":[8.0422187E-1,-6.1257243E-1,9.1875875E-1,-9.997022E-1,-2.625691E-1,-8.5903734E-1,2.0327548E-2,-7.929014E-1,-9.545848E-1,-6.8031E-1,-9.9999994E-1,-9.974084E-1,-7.767343E-1,1.8560286E-1,-9.9999994E-1,-1.7182335E-2,-3.4983924E-1,-9.9927163E-1,-7.1428573E-1,-8.05761E-1,-3.2306224E-1,-0E0,1.2515391E-2,8.4337753E-1,-9.9999195E-1,6.6018286E-3,-6.31562E-4,6.1559636E-4,-1.4211428E-3,-1.122383E-2,-6.8322634E-3,6.6824653E-3,3.111028E-4,-4.2570154E-3,1.0667407E-2,-5.090914E-4,-4.3997127E-3,-3.9407038E-4,9.877482E-3,-0E0,-9.0632454E-4,-0E0,6.277105E-3],"split_indices":[0,0,0,2,0,3,0,0,0,2,7,2,3,3,5,0,2,2,6,3,2,0,0,0,2,0,0,0,0,0,0,0,0,0,0,0,0,0,0,0,0,0,0],"split_type":[0,0,0,0,0,0,0,0,0,0,0,0,0,0,0,0,0,0,0,0,0,0,0,0,0,0,0,0,0,0,0,0,0,0,0,0,0,0,0,0,0,0,0],"sum_hessian":[2.4082522E3,2.1637532E3,2.4449889E2,6.241302E2,1.539623E3,9.521348E1,1.4928542E2,8.1699356E1,5.424308E2,2.6178766E2,1.2778354E3,6.247514E1,3.2738342E1,4.297375E1,3.87256E1,1.3067548E2,4.1175534E2,8.664017E1,1.7514749E2,9.472872E2,3.3054825E2,3.4821305E0,5.8993008E1,6.3983097E0,2.634003E1,3.7974556E1,4.9991927E0,2.8728811E1,9.996791E0,1.9944066E2,2.1231467E2,2.0969995E1,6.567017E1,1.0593366E1,1.6455414E2,6.6217114E2,2.8511606E2,1.9585057E2,1.3469768E2,2.2108574E0,4.1874523E0,1.2495809E0,2.509045E1],"tree_param":{"num_deleted":"0","num_feature":"10","num_nodes":"43","size_leaf_vector":"1"}},{"base_weights":[3.1315142E-3,4.2440107E-1,-1.3514285E0,-1.1884558E0,1.3115575E0,1.8543968E-1,-1.6530216E0,2.0513098E-1,-1.6787188E0,1.3356442E0,-1.2352921E-2,2.6721492E-1,-6.3928336E-2,-2.0377267E-2,-4.890046E-1,2.4403909E-1,-0E0,-2.0234313E-2,-0E0,1.3497739E0,3.273264E-1,-1.612727E-4,3.3692968E-1,2.6444698E-2,-2.7139193E-1,-0E0,-6.584073E-3,-0E0,3.7737295E-3,-3.1805886E-3,3.1125988E-3,1.6230222E-2,-0E0,-7.321033E-3,9.554523E-3,4.8059477E-3,-0E0,-0E0,1.2341399E-3,-0E0,-4.9695224E-3,-1.0347576E-3,1.4400038E-5],"categories":[],"categories_nodes":[],"categories_segments":[],"categories_sizes":[],"default_left":[0,0,0,0,0,0,0,0,0,0,0,0,0,0,0,0,0,0,0,0,0,0,0,0,0,0,0,0,0,0,0,0,0,0,0,0,0,0,0,0,0,0,0],"id":15,"left_children":[1,3,5,7,9,11,13,15,17,19,-1,21,23,-1,25,27,29,-1,-1,31,33,-1,35,37,39,41,-1,-1,-1,-1,-1,-1,-1,-1,-1,-1,-1,-1,-1,-1,-1,-1,-1],"loss_changes":[1.3769747E3,2.6481492E3,2.7037024E2,4.5387085E2,7.476611E1,2.5780137E0,1.4368164E1,1.712893E0,3.8498535E0,1.0432617E1,0E0,2.445826E0,1.039002E0,0E0,3.960781E-1,1.9561186E0,2.202419E0,0E0,0E0,5.996094E-1,1.3938512E1,0E0,1.1060038E0,7.888358E-2,9.608654E-1,5.6559797E-2,0E0,0E0,0E0,0E0,0E0,0E0,0E0,0E0,0E0,0E0,0E0,0E0,0E0,0E0,0E0,0E0,0E0],"parents":[2147483647,0,0,1,1,2,2,3,3,4,4,5,5,6,6,7,7,8,8,9,9,11,11,12,12,14,14,15,15,16,16,19,19,20,20,22,22,23,23,24,24,25,25],"right_children":[2,4,6,8,10,12,14,16,18,20,-1,22,24,-1,26,28,30,-1,-1,32,34,-1,36,38,40,42,-1,-1,-1,-1,-1,-1,-1,-1,-1,-1,-1,-1,-1,-1,-1,-1,-1],"split_conditions":[0E0,-3.3333334E-1,-9.997022E-1,-9.999437E-1,4.2909107E-1,-9.9999994E-1,9.344056E-1,-9.999997E-1,8.810006E-1,8.4372675E-1,-1.2352921E-2,-8.035114E-1,-4.0138125E-1,-2.0377267E-2,9.436471E-1,-6.666667E-1,7.1428573E-1,-2.0234313E-2,-0E0,-9.950355E-1,6.763744E-1,-1.612727E-4,7.7030915E-1,-5.470182E-1,-9.9999595E-1,2.0095313E-1,-6.584073E-3,-0E0,3.7737295E-3,-3.1805886E-3,3.1125988E-3,1.6230222E-2,-0E0,-7.321033E-3,9.554523E-3,4.8059477E-3,-0E0,-0E0,1.2341399E-3,-0E0,-4.9695224E-3,-1.0347576E-3,1.4400038E-5],"split_indices":[9,9,2,2,1,5,2,5,2,4,0,4,4,0,4,9,6,0,0,5,2,0,4,4,2,1,0,0,0,0,0,0,0,0,0,0,0,0,0,0,0,0,0],"split_type":[0,0,0,0,0,0,0,0,0,0,0,0,0,0,0,0,0,0,0,0,0,0,0,0,0,0,0,0,0,0,0,0,0,0,0,0,0,0,0,0,0,0,0],"sum_hessian":[2.4074226E3,1.840322E3,5.671006E2,6.514462E2,1.1888757E3,9.1947945E1,4.7515265E2,1.6891698E2,4.8252927E2,1.1799175E3,8.958356E0,7.670328E1,1.5244667E1,4.539675E2,2.1185144E1,1.4667715E2,2.2239826E1,4.8078394E2,1.7453351E0,1.159479E3,2.0438435E1,8.745977E0,6.7957306E1,4.997904E0,1.0246763E1,3.9907098E0,1.7194435E1,4.023346E1,1.06443695E2,1.3495501E1,8.744325E0,1.1579878E3,1.4911691E0,4.4956264E0,1.5942808E1,5.3711765E1,1.424554E1,1.7492112E0,3.2486925E0,2.9990337E0,7.2477293E0,2.7416384E0,1.2490712E0],"tree_param":{"num_deleted":"0","num_feature":"10","num_nodes":"43","size_leaf_vector":"1"}},{"base_weights":[1.7069702E-3,4.200302E-1,-1.3309168E0,-1.1731893E0,1.2871628E0,-5.0172013E-1,-1.6285902E0,-3.8492364E-1,-1.9894678E-2,1.311623E0,-1.2449397E-2,-1.856631E-2,2.1340193E-1,-8.8051003E-1,-2.0399842E-2,-1.9011091E-2,1.9247808E-1,7.7503836E-1,1.3924259E0,2.9607564E-1,-0E0,-1.0528051E0,-2.068322E-1,3.2845943E-3,-0E0,-4.193272E-3,1.0030466E-2,1.68631E-2,4.7714417E-3,-0E0,4.470165E-3,-0E0,-1.3265089E-3,-0E0,-1.3124279E-2,-3.75868E-3,-0E0],"categories":[],"categories_nodes":[],"categories_segments":[],"categories_sizes":[],"default_left":[0,0,0,0,0,0,0,0,0,0,0,0,0,0,0,0,0,0,0,0,0,0,0,0,0,0,0,0,0,0,0,0,0,0,0,0,0],"id":16,"left_children":[1,3,5,7,9,11,13,15,-1,17,-1,-1,19,21,-1,-1,23,25,27,29,31,33,35,-1,-1,-1,-1,-1,-1,-1,-1,-1,-1,-1,-1,-1,-1],"loss_changes":[1.3438741E3,2.5488052E3,1.326065E2,2.388725E2,7.522046E1,1.2542264E2,7.819336E0,1.8143071E2,0E0,4.057617E1,0E0,0E0,2.4870005E0,1.3772125E0,0E0,0E0,2.9723945E0,1.4109474E1,3.9176025E0,2.655881E0,1.9962421E-1,9.815216E-3,6.829526E-1,0E0,0E0,0E0,0E0,0E0,0E0,0E0,0E0,0E0,0E0,0E0,0E0,0E0,0E0],"parents":[2147483647,0,0,1,1,2,2,3,3,4,4,5,5,6,6,7,7,9,9,12,12,13,13,16,16,17,17,18,18,19,19,20,20,21,21,22,22],"right_children":[2,4,6,8,10,12,14,16,-1,18,-1,-1,20,22,-1,-1,24,26,28,30,32,34,36,-1,-1,-1,-1,-1,-1,-1,-1,-1,-1,-1,-1,-1,-1],"split_conditions":[0E0,-3.3333334E-1,-9.996071E-1,-9.996071E-1,4.2909107E-1,-9.996127E-1,-7.1428573E-1,-9.996127E-1,-1.9894678E-2,-6.1257243E-1,-1.2449397E-2,-1.856631E-2,6.737266E-1,-1.3836578E-1,-2.0399842E-2,-1.9011091E-2,-3.6276042E-1,-9.9613774E-1,8.4372675E-1,-7.87759E-1,-7.1428573E-1,-9.9989897E-1,2.5244722E-1,3.2845943E-3,-0E0,-4.193272E-3,1.0030466E-2,1.68631E-2,4.7714417E-3,-0E0,4.470165E-3,-0E0,-1.3265089E-3,-0E0,-1.3124279E-2,-3.75868E-3,-0E0],"split_indices":[9,9,1,1,1,1,8,1,0,0,0,0,4,1,0,0,3,0,4,4,6,3,0,0,0,0,0,0,0,0,0,0,0,0,0,0,0],"split_type":[0,0,0,0,0,0,0,0,0,0,0,0,0,0,0,0,0,0,0,0,0,0,0,0,0,0,0,0,0,0,0,0,0,0,0,0,0],"sum_hessian":[2.4050776E3,1.8344803E3,5.705974E2,6.449017E2,1.1895786E3,1.5646262E2,4.141348E2,2.502514E2,3.9465027E2,1.1803787E3,9.19993E0,6.2771816E1,9.3690796E1,4.3903336E1,3.7023145E2,8.009372E1,1.7015768E2,1.6539854E2,1.01498016E3,7.469756E1,1.8993233E1,2.9749702E1,1.4153636E1,1.21663475E2,4.84942E1,4.999869E0,1.6039868E2,9.99285E2,1.5695191E1,9.995468E0,6.4702095E1,7.4988484E0,1.1494385E1,2.452392E0,2.729731E1,1.0417205E1,3.7364311E0],"tree_param":{"num_deleted":"0","num_feature":"10","num_nodes":"37","size_leaf_vector":"1"}},{"base_weights":[9.496592E-3,4.2490014E-1,-1.3137891E0,-1.1519841E0,1.2947414E0,1.7582135E-1,-1.6205636E0,2.3193124E-1,-1.6490403E0,7.4306864E-1,1.3820015E0,2.8280184E-1,-5.667776E-2,-2.0029863E-2,-4.027545E-1,3.2681248E-1,-0E0,-1.9879192E-2,-0E0,-6.041164E-3,8.1808215E-1,1.3936749E0,2.8222123E-1,3.5092366E-1,-0E0,-2.0857574E-1,-0E0,-9.118165E-3,-0E0,-1.4026746E-3,4.4211913E-3,-1.2061755E-3,2.1082654E-3,1.059074E-2,-0E0,1.574327E-2,1.9629281E-2,-5.2068923E-3,8.9240745E-3,-0E0,4.905324E-3,-1.4701942E-3,-0E0,-3.9814212E-3,-0E0,1.1498978E-3,-0E0,-0E0,-1.587E-3],"categories":[],"categories_nodes":[],"categories_segments":[],"categories_sizes":[],"default_left":[0,0,0,0,0,0,0,0,0,0,0,0,0,0,0,0,0,0,0,0,0,0,0,0,0,0,0,0,0,0,0,0,0,0,0,0,0,0,0,0,0,0,0,0,0,0,0,0,0],"id":17,"left_children":[1,3,5,7,9,11,13,15,17,19,21,23,25,-1,27,29,31,-1,-1,-1,33,35,37,39,41,43,45,-1,47,-1,-1,-1,-1,-1,-1,-1,-1,-1,-1,-1,-1,-1,-1,-1,-1,-1,-1,-1,-1],"loss_changes":[1.3225348E3,2.5254932E3,2.6754803E2,4.554605E2,4.666162E1,3.1704433E0,1.8509033E1,4.0058203E0,4.6749268E0,1.9318886E1,6.819092E0,2.0868073E0,5.236349E-1,0E0,2.44486E0,3.1534157E0,1.0166558E0,0E0,0E0,0E0,8.691902E0,2.0407715E0,8.651211E0,1.7232828E0,1.14245035E-1,5.25263E-1,1.2715001E-1,0E0,1.852708E-1,0E0,0E0,0E0,0E0,0E0,0E0,0E0,0E0,0E0,0E0,0E0,0E0,0E0,0E0,0E0,0E0,0E0,0E0,0E0,0E0],"parents":[2147483647,0,0,1,1,2,2,3,3,4,4,5,5,6,6,7,7,8,8,9,9,10,10,11,11,12,12,14,14,15,15,16,16,20,20,21,21,22,22,23,23,24,24,25,25,26,26,28,28],"right_children":[2,4,6,8,10,12,14,16,18,20,22,24,26,-1,28,30,32,-1,-1,-1,34,36,38,40,42,44,46,-1,48,-1,-1,-1,-1,-1,-1,-1,-1,-1,-1,-1,-1,-1,-1,-1,-1,-1,-1,-1,-1],"split_conditions":[0E0,-3.3333334E-1,-9.997022E-1,-9.999437E-1,-6.1257243E-1,4.4129986E-1,9.344056E-1,-3.6276042E-1,8.810006E-1,-9.9613774E-1,8.5628873E-1,-9.999517E-1,5.759473E-1,-2.0029863E-2,-6.8529E-1,-9.5848185E-1,-9.999718E-1,-1.9879192E-2,-0E0,-6.041164E-3,-9.999994E-1,7.9156953E-1,6.32068E-1,-9.95543E-1,6.955508E-1,-8.7113976E-1,1.09127864E-1,-9.118165E-3,9.7759104E-1,-1.4026746E-3,4.4211913E-3,-1.2061755E-3,2.1082654E-3,1.059074E-2,-0E0,1.574327E-2,1.9629281E-2,-5.2068923E-3,8.9240745E-3,-0E0,4.905324E-3,-1.4701942E-3,-0E0,-3.9814212E-3,-0E0,1.1498978E-3,-0E0,-0E0,-1.587E-3],"split_indices":[9,9,2,2,0,0,2,3,2,0,4,2,0,0,0,4,2,0,0,0,5,0,2,3,4,3,4,0,4,0,0,0,0,0,0,0,0,0,0,0,0,0,0,0,0,0,0,0,0],"split_type":[0,0,0,0,0,0,0,0,0,0,0,0,0,0,0,0,0,0,0,0,0,0,0,0,0,0,0,0,0,0,0,0,0,0,0,0,0,0,0,0,0,0,0,0,0,0,0,0,0],"sum_hessian":[2.4002266E3,1.8307643E3,5.694622E2,6.492508E2,1.1815134E3,9.618085E1,4.7328137E2,1.7089607E2,4.7835474E2,1.7171053E2,1.0098029E3,7.268296E1,2.3497883E1,4.5211343E2,2.1167963E1,1.2115208E2,4.9744003E1,4.7686035E2,1.4943823E0,6.2335052E0,1.6547702E2,9.9560455E2,1.4198388E1,6.2437103E1,1.0245858E1,9.249338E0,1.4248546E1,6.6995153E0,1.4468447E1,4.24895E0,1.1690312E2,3.4497097E1,1.5246906E1,1.5304665E2,1.2430381E1,7.702731E2,2.2533151E2,3.497333E0,1.0701056E1,7.243999E0,5.5193104E1,2.7473462E0,7.4985123E0,5.4996495E0,3.7496884E0,8.998943E0,5.249602E0,8.731875E0,5.7365713E0],"tree_param":{"num_deleted":"0","num_feature":"10","num_nodes":"49","size_leaf_vector":"1"}},{"base_weights":[-1.2800919E-3,4.1020238E-1,-1.3158946E0,-1.1566598E0,1.2693578E0,-9.273965E-3,-1.3691231E0,-1.1595341E0,-0E0,7.1951216E-1,1.3554716E0,-1.4837736E-2,-1.950827E-2,-1.4066023E-2,-2.931494E-1,-6.446192E-3,7.985877E-1,1.3687848E0,2.8814408E-1,-0E0,-6.6443635E-3,1.02697415E-2,-0E0,1.5382161E-2,1.956189E-2,5.3376555E-3,-0E0],"categories":[],"categories_nodes":[],"categories_segments":[],"categories_sizes":[],"default_left":[0,0,0,0,0,0,0,0,0,0,0,0,0,0,0,0,0,0,0,0,0,0,0,0,0,0,0],"id":18,"left_children":[1,3,5,7,9,-1,11,13,-1,15,17,-1,-1,-1,19,-1,21,23,25,-1,-1,-1,-1,-1,-1,-1,-1],"loss_changes":[1.3034556E3,2.4715713E3,6.010498E0,2.0170898E0,4.6066895E1,0E0,4.208374E-1,8.5162354E-1,0E0,2.0140442E1,8.265625E0,0E0,0E0,0E0,2.6760576E0,0E0,9.466759E0,5.328491E0,1.3761438E0,0E0,0E0,0E0,0E0,0E0,0E0,0E0,0E0],"parents":[2147483647,0,0,1,1,2,2,3,3,4,4,6,6,7,7,9,9,10,10,14,14,16,16,17,17,18,18],"right_children":[2,4,6,8,10,-1,12,14,-1,16,18,-1,-1,-1,20,-1,22,24,26,-1,-1,-1,-1,-1,-1,-1,-1],"split_conditions":[0E0,-3.3333334E-1,-7.1428573E-1,9.041087E-1,-6.1257243E-1,-9.273965E-3,3.3333334E-1,9.0937036E-1,-0E0,-9.9613774E-1,8.4372675E-1,-1.4837736E-2,-1.950827E-2,-1.4066023E-2,-2.857143E-1,-6.446192E-3,-9.9999857E-1,7.9156953E-1,5.325298E-1,-0E0,-6.6443635E-3,1.02697415E-2,-0E0,1.5382161E-2,1.956189E-2,5.3376555E-3,-0E0],"split_indices":[9,9,8,0,0,0,9,4,0,0,4,0,0,0,6,0,5,0,0,0,0,0,0,0,0,0,0],"split_type":[0,0,0,0,0,0,0,0,0,0,0,0,0,0,0,0,0,0,0,0,0,0,0,0,0,0,0],"sum_hessian":[2.39557E3,1.825569E3,5.70001E2,6.448579E2,1.180711E3,6.1827805E1,5.081732E2,6.4314105E2,1.7168796E0,1.7008528E2,1.01062573E3,3.580408E2,1.5013237E2,6.303457E2,1.279537E1,6.4848733E0,1.636004E2,9.944458E2,1.6179958E1,3.9599261E0,8.835444E0,1.5514708E2,8.453325E0,7.703114E2,2.2413441E2,1.0950989E1,5.228969E0],"tree_param":{"num_deleted":"0","num_feature":"10","num_nodes":"27","size_leaf_vector":"1"}},{"base_weights":[-0E0,-1.5550904E-1,1.3522723E0,-7.4178976E-1,7.963618E-2,8.2069135E-1,1.954923E-2,2.191483E-1,-8.9584476E-1,5.973325E-1,-2.5258137E-2,8.8509834E-1,-5.324661E-2,-2.8891978E-3,2.8441373E-1,-1.8376274E-2,-7.663069E-1,-2.1280679E-1,6.502876E-1,5.212679E-1,-1.4134388E-1,-0E0,1.080966E-2,-0E0,-1.6487252E-3,4.349859E-3,-0E0,-2.6856777E-3,-1.0380208E-2,-0E0,-4.564027E-3,2.444965E-3,1.0149423E-2,2.5643415E-3,1.5874313E-2,-4.632444E-3,1.3837225E-3],"categories":[],"categories_nodes":[],"categories_segments":[],"categories_sizes":[],"default_left":[0,0,0,0,0,0,0,0,0,0,0,0,0,0,0,0,0,0,0,0,0,0,0,0,0,0,0,0,0,0,0,0,0,0,0,0,0],"id":19,"left_children":[1,3,5,7,9,11,-1,13,15,17,19,21,23,-1,25,-1,27,29,31,33,35,-1,-1,-1,-1,-1,-1,-1,-1,-1,-1,-1,-1,-1,-1,-1,-1],"loss_changes":[5.0579102E2,2.98967E2,2.3460724E1,9.451242E1,8.510164E1,7.8502274E0,0E0,3.0659776E0,3.2546326E1,1.3102341E1,8.060602E1,1.2294006E0,1.1380386E-1,0E0,2.3608222E0,0E0,2.063388E1,1.3135953E0,1.833442E1,4.923197E1,6.75341E1,0E0,0E0,0E0,0E0,0E0,0E0,0E0,0E0,0E0,0E0,0E0,0E0,0E0,0E0,0E0,0E0],"parents":[2147483647,0,0,1,1,2,2,3,3,4,4,5,5,7,7,8,8,9,9,10,10,11,11,12,12,14,14,16,16,17,17,18,18,19,19,20,20],"right_children":[2,4,6,8,10,12,-1,14,16,18,20,22,24,-1,26,-1,28,30,32,34,36,-1,-1,-1,-1,-1,-1,-1,-1,-1,-1,-1,-1,-1,-1,-1,-1],"split_conditions":[8.0422187E-1,-6.1257243E-1,9.1875875E-1,-9.997022E-1,-2.625691E-1,8.3354217E-1,1.954923E-2,-9.189226E-1,-9.9613774E-1,-7.1428573E-1,-7.96365E-1,-9.9999595E-1,-9.9875385E-1,-2.8891978E-3,-6.8529E-1,-1.8376274E-2,-7.3341733E-1,-6.11609E-1,-6.8031E-1,-7.994744E-1,-3.2306224E-1,-0E0,1.080966E-2,-0E0,-1.6487252E-3,4.349859E-3,-0E0,-2.6856777E-3,-1.0380208E-2,-0E0,-4.564027E-3,2.444965E-3,1.0149423E-2,2.5643415E-3,1.5874313E-2,-4.632444E-3,1.3837225E-3],"split_indices":[0,0,0,2,0,4,0,4,0,6,4,2,1,0,0,0,4,2,2,2,2,0,0,0,0,0,0,0,0,0,0,0,0,0,0,0,0],"split_type":[0,0,0,0,0,0,0,0,0,0,0,0,0,0,0,0,0,0,0,0,0,0,0,0,0,0,0,0,0,0,0,0,0,0,0,0,0],"sum_hessian":[2.3925708E3,2.1493486E3,2.4322232E2,6.15385E2,1.5339635E3,9.26908E1,1.5053151E2,8.244648E1,5.3293854E2,2.5868942E2,1.275274E3,8.899665E1,3.6941519E0,3.7482612E0,7.869822E1,7.815392E1,4.547846E2,1.2003742E1,2.4668567E2,2.1657426E2,1.0586998E3,1.4996871E0,8.749696E1,1.2417992E0,2.4523525E0,6.4712036E1,1.3986182E1,7.577493E1,3.7900967E2,2.483142E0,9.5206E0,8.182172E1,1.6486395E2,1.6316658E2,5.3407696E1,5.462024E2,5.1249744E2],"tree_param":{"num_deleted":"0","num_feature":"10","num_nodes":"37","size_leaf_vector":"1"}},{"base_weights":[-5.096921E-3,-1.6039838E-1,1.331623E0,-7.296021E-1,7.049168E-2,8.018257E-1,1.9380188E-2,2.1948129E-1,-8.7951154E-1,5.643933E-1,-3.022894E-2,8.791107E-1,-1.5102798E-1,-2.233067E-3,2.784437E-1,-1.8147241E-2,-7.4805313E-1,2.060835E-1,7.1367764E-1,4.6961707E-1,-1.5884767E-1,-0E0,1.08715E-2,-0E0,-2.8223912E-3,4.276428E-3,-2.586507E-5,-2.2492483E-3,-1.01885535E-2,5.6114285E-3,-0E0,-1.0623198E-3,9.514506E-3,1.1612311E-3,1.4990672E-2,-4.7653797E-3,9.886186E-4,-0E0,1.8619323E-3],"categories":[],"categories_nodes":[],"categories_segments":[],"categories_sizes":[],"default_left":[0,0,0,0,0,0,0,0,0,0,0,0,0,0,0,0,0,0,0,0,0,0,0,0,0,0,0,0,0,0,0,0,0,0,0,0,0,0,0],"id":20,"left_children":[1,3,5,7,9,11,-1,13,15,17,19,21,23,-1,25,-1,27,29,31,33,35,37,-1,-1,-1,-1,-1,-1,-1,-1,-1,-1,-1,-1,-1,-1,-1,-1,-1],"loss_changes":[4.9256982E2,2.8321973E2,2.4293396E1,9.102249E1,7.725745E1,9.761452E0,0E0,2.5526628E0,3.3475372E1,1.0979614E1,8.096629E1,2.48703E-1,2.2468063E-1,0E0,2.709402E0,0E0,2.2345428E1,4.1346693E0,1.3332481E1,7.034093E1,5.9140305E1,2.0126472E-1,0E0,0E0,0E0,0E0,0E0,0E0,0E0,0E0,0E0,0E0,0E0,0E0,0E0,0E0,0E0,0E0,0E0],"parents":[2147483647,0,0,1,1,2,2,3,3,4,4,5,5,7,7,8,8,9,9,10,10,11,11,12,12,14,14,16,16,17,17,18,18,19,19,20,20,21,21],"right_children":[2,4,6,8,10,12,-1,14,16,18,20,22,24,-1,26,-1,28,30,32,34,36,38,-1,-1,-1,-1,-1,-1,-1,-1,-1,-1,-1,-1,-1,-1,-1,-1,-1],"split_conditions":[8.0422187E-1,-6.1257243E-1,9.1875875E-1,-9.997022E-1,-2.625691E-1,8.3354217E-1,1.9380188E-2,-9.189226E-1,-9.9613774E-1,-6.8031E-1,-7.4286497E-1,-9.974084E-1,-9.9927163E-1,-2.233067E-3,1.8560286E-1,-1.8147241E-2,-7.3341733E-1,-9.831507E-1,-5.714286E-1,-8.048427E-1,-3.2306224E-1,-9.828793E-1,1.08715E-2,-0E0,-2.8223912E-3,4.276428E-3,-2.586507E-5,-2.2492483E-3,-1.01885535E-2,5.6114285E-3,-0E0,-1.0623198E-3,9.514506E-3,1.1612311E-3,1.4990672E-2,-4.7653797E-3,9.886186E-4,-0E0,1.8619323E-3],"split_indices":[0,0,0,2,0,4,0,4,0,2,4,2,2,0,3,0,4,2,8,2,2,3,0,0,0,0,0,0,0,0,0,0,0,0,0,0,0,0,0],"split_type":[0,0,0,0,0,0,0,0,0,0,0,0,0,0,0,0,0,0,0,0,0,0,0,0,0,0,0,0,0,0,0,0,0,0,0,0,0,0,0],"sum_hessian":[2.377275E3,2.1353933E3,2.4188153E2,6.1638275E2,1.5190106E3,9.357667E1,1.4830487E2,8.1441696E1,5.3494104E2,2.5779343E2,1.2612172E3,8.938892E1,4.187745E0,3.4984941E0,7.79432E1,8.005912E1,4.5488193E2,8.427556E1,1.7351787E2,2.5139528E2,1.0098219E3,4.9787803E0,8.441014E1,1.2494481E0,2.9382968E0,6.719456E1,1.0748642E1,7.478679E1,3.8009512E2,3.1432915E1,5.284264E1,1.2453235E1,1.6106462E2,1.7586757E2,7.5527725E1,5.1220764E2,4.976143E2,1.4807882E0,3.497992E0],"tree_param":{"num_deleted":"0","num_feature":"10","num_nodes":"39","size_leaf_vector":"1"}},{"base_weights":[1.6727227E-4,4.055251E-1,-1.2889626E0,-1.1286231E0,1.2538502E0,2.0787047E-1,-1.5927279E0,2.5730062E-1,-1.6309676E0,1.2783422E0,-1.2413878E-2,3.0351818E-1,-4.1858573E-3,-1.964374E-2,-4.206026E-1,3.1466147E-1,-0E0,-1.9660871E-2,-0E0,7.6916885E-1,1.3551445E0,-0E0,3.7302288E-1,-1.7861146E-1,1.744754E-3,-8.527046E-3,-2.4801767E-3,-6.763062E-6,4.102054E-3,-2.7376208E-3,4.987489E-4,-3.8712441E-3,9.944346E-3,1.6411714E-2,3.5949284E-3,2.34579E-3,-4.038306E-3,5.555366E-3,-0E0,-3.6412028E-3,-0E0,2.609486E-3,-5.3429796E-4,-0E0,-1.9218915E-3],"categories":[],"categories_nodes":[],"categories_segments":[],"categories_sizes":[],"default_left":[0,0,0,0,0,0,0,0,0,0,0,0,0,0,0,0,0,0,0,0,0,0,0,0,0,0,0,0,0,0,0,0,0,0,0,0,0,0,0,0,0,0,0,0,0],"id":21,"left_children":[1,3,5,7,9,11,13,15,17,19,-1,21,23,-1,25,27,29,-1,-1,31,33,35,37,39,41,-1,43,-1,-1,-1,-1,-1,-1,-1,-1,-1,-1,-1,-1,-1,-1,-1,-1,-1,-1],"loss_changes":[1.2496808E3,2.3813118E3,2.6506427E2,4.5881573E2,7.306299E1,2.7866144E0,1.4990356E1,3.2019796E0,3.7926025E0,3.518457E1,0E0,2.257135E0,4.822769E-1,0E0,1.2236753E0,2.1381674E0,6.956756E-1,0E0,0E0,1.337413E1,5.194702E0,1.5205064E0,2.6032314E0,5.166919E-1,6.595432E-1,0E0,3.9282656E-1,0E0,0E0,0E0,0E0,0E0,0E0,0E0,0E0,0E0,0E0,0E0,0E0,0E0,0E0,0E0,0E0,0E0,0E0],"parents":[2147483647,0,0,1,1,2,2,3,3,4,4,5,5,6,6,7,7,8,8,9,9,11,11,12,12,14,14,15,15,16,16,19,19,20,20,21,21,22,22,23,23,24,24,26,26],"right_children":[2,4,6,8,10,12,14,16,18,20,-1,22,24,-1,26,28,30,-1,-1,32,34,36,38,40,42,-1,44,-1,-1,-1,-1,-1,-1,-1,-1,-1,-1,-1,-1,-1,-1,-1,-1,-1,-1],"split_conditions":[0E0,-3.3333334E-1,-9.997022E-1,-9.999437E-1,4.2909107E-1,4.4129986E-1,9.344056E-1,1.9566761E-1,8.810006E-1,-6.1257243E-1,-1.2413878E-2,-9.95543E-1,5.878005E-1,-1.964374E-2,-7.236465E-1,-9.5848185E-1,-6.666667E-1,-1.9660871E-2,-0E0,-9.9613774E-1,8.5628873E-1,-1.142039E-1,7.320337E-1,-8.7113976E-1,1.4369941E-1,-8.527046E-3,-1.142039E-1,-6.763062E-6,4.102054E-3,-2.7376208E-3,4.987489E-4,-3.8712441E-3,9.944346E-3,1.6411714E-2,3.5949284E-3,2.34579E-3,-4.038306E-3,5.555366E-3,-0E0,-3.6412028E-3,-0E0,2.609486E-3,-5.3429796E-4,-0E0,-1.9218915E-3],"split_indices":[9,9,2,2,1,0,2,3,2,0,0,3,0,0,0,4,9,0,0,0,4,0,4,3,4,0,0,0,0,0,0,0,0,0,0,0,0,0,0,0,0,0,0,0,0],"split_type":[0,0,0,0,0,0,0,0,0,0,0,0,0,0,0,0,0,0,0,0,0,0,0,0,0,0,0,0,0,0,0,0,0,0,0,0,0,0,0,0,0,0,0,0,0],"sum_hessian":[2.3860217E3,1.8192899E3,5.6673175E2,6.461448E2,1.1731451E3,9.44484E1,4.7228333E2,1.7117577E2,4.74969E2,1.1639524E3,9.192694E0,7.1951706E1,2.2496696E1,4.519006E2,2.0382746E1,1.4517696E2,2.5998808E1,4.7322775E2,1.7412345E0,1.6397098E2,9.9998145E2,9.744016E0,6.2207687E1,1.0247982E1,1.2248714E1,6.4205103E0,1.3962235E1,4.249595E0,1.4092737E2,7.749468E0,1.824934E1,4.996522E0,1.5897444E2,9.860488E2,1.3932617E1,4.2481422E0,5.495874E0,5.0961105E1,1.1246584E1,5.9988246E0,4.2491574E0,8.749218E0,3.4994972E0,3.4876413E0,1.0474594E1],"tree_param":{"num_deleted":"0","num_feature":"10","num_nodes":"45","size_leaf_vector":"1"}},{"base_weights":[-0E0,3.9475113E-1,-1.2708277E0,-1.1238447E0,1.2353647E0,2.084955E-1,-1.5768491E0,2.0389545E-1,-1.6112311E0,1.2595875E0,-1.229814E-2,3.1279948E-1,-2.1631787E-2,-1.9479252E-2,-3.7713736E-1,2.5055975E-1,-3.7834966E-3,-1.9423075E-2,-0E0,6.6511846E-1,1.3199939E0,-0E0,3.6585414E-1,-0E0,-1.402463E-1,-8.4613785E-3,-0E0,-2.3840257E-5,3.300076E-3,-3.4479825E-3,2.1611315E-3,2.6560146E-3,1.1212751E-2,1.5978444E-2,3.561896E-3,-8.18105E-4,-0E0,5.3598327E-3,-0E0,-1.2143935E-3,2.2367947E-3,-0E0,-3.1728025E-3,-0E0,-1.1019757E-3],"categories":[],"categories_nodes":[],"categories_segments":[],"categories_sizes":[],"default_left":[0,0,0,0,0,0,0,0,0,0,0,0,0,0,0,0,0,0,0,0,0,0,0,0,0,0,0,0,0,0,0,0,0,0,0,0,0,0,0,0,0,0,0,0,0],"id":22,"left_children":[1,3,5,7,9,11,13,15,17,19,-1,21,23,-1,25,27,29,-1,-1,31,33,35,37,39,41,-1,43,-1,-1,-1,-1,-1,-1,-1,-1,-1,-1,-1,-1,-1,-1,-1,-1,-1,-1],"loss_changes":[1.1999258E3,2.3350315E3,2.6180164E2,4.26646E2,7.131592E1,3.1799197E0,1.7033325E1,2.3589478E0,3.6912842E0,3.258069E1,0E0,1.7629147E0,2.9919603E-1,0E0,2.0099525E0,1.6455517E0,1.9496471E0,0E0,0E0,1.05046425E1,4.548706E0,4.5805037E-2,2.3787136E0,5.519721E-1,5.510024E-1,0E0,1.249328E-1,0E0,0E0,0E0,0E0,0E0,0E0,0E0,0E0,0E0,0E0,0E0,0E0,0E0,0E0,0E0,0E0,0E0,0E0],"parents":[2147483647,0,0,1,1,2,2,3,3,4,4,5,5,6,6,7,7,8,8,9,9,11,11,12,12,14,14,15,15,16,16,19,19,20,20,21,21,22,22,23,23,24,24,26,26],"right_children":[2,4,6,8,10,12,14,16,18,20,-1,22,24,-1,26,28,30,-1,-1,32,34,36,38,40,42,-1,44,-1,-1,-1,-1,-1,-1,-1,-1,-1,-1,-1,-1,-1,-1,-1,-1,-1,-1],"split_conditions":[0E0,-3.3333334E-1,-9.997022E-1,-9.999437E-1,4.2909107E-1,4.2531797E-1,9.344056E-1,-9.9999976E-1,8.810006E-1,-7.0992875E-1,-1.229814E-2,-8.9119E-1,5.7080365E-3,-1.9479252E-2,-6.8529E-1,-9.5848185E-1,7.1428573E-1,-1.9423075E-2,-0E0,-3.4983924E-1,8.5628873E-1,-9.9999195E-1,-9.9999994E-1,-7.8076005E-1,-9.9999595E-1,-8.4613785E-3,9.583677E-1,-2.3840257E-5,3.300076E-3,-3.4479825E-3,2.1611315E-3,2.6560146E-3,1.1212751E-2,1.5978444E-2,3.561896E-3,-8.18105E-4,-0E0,5.3598327E-3,-0E0,-1.2143935E-3,2.2367947E-3,-0E0,-3.1728025E-3,-0E0,-1.1019757E-3],"split_indices":[9,9,2,2,1,0,2,5,2,0,0,0,4,0,0,4,6,0,0,2,4,2,5,4,2,0,4,0,0,0,0,0,0,0,0,0,0,0,0,0,0,0,0,0,0],"split_type":[0,0,0,0,0,0,0,0,0,0,0,0,0,0,0,0,0,0,0,0,0,0,0,0,0,0,0,0,0,0,0,0,0,0,0,0,0,0,0,0,0,0,0,0,0],"sum_hessian":[2.3808984E3,1.8187535E3,5.6214484E2,6.4637244E2,1.1723811E3,9.5189735E1,4.669551E2,1.7291315E2,4.7345926E2,1.1632006E3,9.180566E0,7.19434E1,2.324634E1,4.4658148E2,2.037362E1,1.5042303E2,2.2490118E1,4.7171802E2,1.7412345E0,1.1661052E2,1.0465901E3,7.495531E0,6.444787E1,1.22484455E1,1.0997893E1,6.413226E0,1.3960394E1,4.2496176E0,1.4617342E2,1.3246267E1,9.243851E0,5.0846107E1,6.576441E1,1.0326605E3,1.3929583E1,4.99683E0,2.498701E0,5.370272E1,1.0745146E1,3.7495606E0,8.498885E0,3.4997916E0,7.498102E0,3.9914098E0,9.968985E0],"tree_param":{"num_deleted":"0","num_feature":"10","num_nodes":"45","size_leaf_vector":"1"}},{"base_weights":[-0E0,3.9858848E-1,-1.2725841E0,-1.1037812E0,1.2306437E0,1.7799033E-1,-1.5690078E0,2.6318336E-1,-1.5963E0,1.2548791E0,-1.2209441E-2,2.7436027E-1,-2.1724349E-2,-1.9348092E-2,-4.6940303E-1,-5.386732E-2,2.8820062E-1,-1.924307E-2,-0E0,7.8677416E-1,1.3242518E0,-0E0,3.385565E-1,-0E0,-1.6536216E-1,-8.986349E-3,-4.8905738E-2,-2.2533801E-3,-0E0,3.907506E-3,-0E0,-2.8456892E-3,1.0069705E-2,1.60407E-2,4.2776596E-3,-2.0292464E-3,-0E0,4.947612E-3,-0E0,-0E0,1.5922658E-3,-0E0,-3.5847744E-3,-0E0,-2.1371169E-3],"categories":[],"categories_nodes":[],"categories_segments":[],"categories_sizes":[],"default_left":[0,0,0,0,0,0,0,0,0,0,0,0,0,0,0,0,0,0,0,0,0,0,0,0,0,0,0,0,0,0,0,0,0,0,0,0,0,0,0,0,0,0,0,0,0],"id":23,"left_children":[1,3,5,7,9,11,13,15,17,19,-1,21,23,-1,25,27,29,-1,-1,31,33,35,37,39,41,-1,43,-1,-1,-1,-1,-1,-1,-1,-1,-1,-1,-1,-1,-1,-1,-1,-1,-1,-1],"loss_changes":[1.2055549E3,2.272272E3,2.4856653E2,4.4131903E2,7.0528564E1,2.5820222E0,1.2455566E1,2.0576525E0,3.6154785E0,2.719812E1,0E0,2.1241121E0,3.5261497E-1,0E0,8.5678864E-1,2.500361E-1,1.6882648E0,0E0,0E0,1.1257904E1,3.80188E0,2.818181E-1,2.1441216E0,1.9112216E-1,6.0269946E-1,0E0,4.4726682E-1,0E0,0E0,0E0,0E0,0E0,0E0,0E0,0E0,0E0,0E0,0E0,0E0,0E0,0E0,0E0,0E0,0E0,0E0],"parents":[2147483647,0,0,1,1,2,2,3,3,4,4,5,5,6,6,7,7,8,8,9,9,11,11,12,12,14,14,15,15,16,16,19,19,20,20,21,21,22,22,23,23,24,24,26,26],"right_children":[2,4,6,8,10,12,14,16,18,20,-1,22,24,-1,26,28,30,-1,-1,32,34,36,38,40,42,-1,44,-1,-1,-1,-1,-1,-1,-1,-1,-1,-1,-1,-1,-1,-1,-1,-1,-1,-1],"split_conditions":[0E0,-3.3333334E-1,-9.997022E-1,-9.999437E-1,4.2909107E-1,4.4129986E-1,9.344056E-1,-9.5848185E-1,8.810006E-1,-6.1257243E-1,-1.2209441E-2,-8.9119E-1,1.4369941E-1,-1.9348092E-2,-6.8529E-1,2.0090564E-1,-9.999997E-1,-1.924307E-2,-0E0,-9.9613774E-1,8.4372675E-1,-9.9999195E-1,-9.999517E-1,-2.8516173E-1,-9.9999595E-1,-8.986349E-3,9.583677E-1,-2.2533801E-3,-0E0,3.907506E-3,-0E0,-2.8456892E-3,1.0069705E-2,1.60407E-2,4.2776596E-3,-2.0292464E-3,-0E0,4.947612E-3,-0E0,-0E0,1.5922658E-3,-0E0,-3.5847744E-3,-0E0,-2.1371169E-3],"split_indices":[9,9,2,2,1,0,2,4,2,0,0,0,4,0,0,0,5,0,0,0,4,2,2,4,2,0,4,0,0,0,0,0,0,0,0,0,0,0,0,0,0,0,0,0,0],"split_type":[0,0,0,0,0,0,0,0,0,0,0,0,0,0,0,0,0,0,0,0,0,0,0,0,0,0,0,0,0,0,0,0,0,0,0,0,0,0,0,0,0,0,0,0,0],"sum_hessian":[2.3690427E3,1.8072897E3,5.6175305E2,6.425051E2,1.1647844E3,9.418278E1,4.675703E2,1.6940598E2,4.7309915E2,1.1556138E3,9.170733E0,7.093662E1,2.3246153E1,4.4620862E2,2.1361671E1,4.499581E0,1.6490639E2,4.7135794E2,1.7412345E0,1.6169336E2,9.939204E2,7.4956245E0,6.3440998E1,1.4748303E1,8.497849E0,6.903492E0,1.4458179E1,2.9997158E0,1.4998649E0,1.4441545E2,2.0490932E1,4.497202E0,1.5719615E2,9.785093E2,1.5411126E1,4.9969234E0,2.498701E0,5.39457E1,9.495294E0,8.748678E0,5.9996247E0,2.499821E0,5.9980288E0,3.741867E0,1.0716312E1],"tree_param":{"num_deleted":"0","num_feature":"10","num_nodes":"45","size_leaf_vector":"1"}},{"base_weights":[3.0264382E-3,-1.414709E-1,1.2938176E0,-7.003847E-1,8.358136E-2,7.6706415E-1,1.8843751E-2,2.267325E-1,-8.436031E-1,5.587665E-1,-1.4605254E-2,9.372818E-1,2.8946105E-1,3.9416218E-1,-0E0,-1.7745739E-2,-7.127609E-1,-1.5808898E-1,6.094085E-1,-1.6215126E-1,2.2511035E-1,-0E0,1.1597756E-2,-0E0,4.3611935E-1,6.010168E-3,-9.024869E-6,-7.2874327E-4,8.1643334E-4,-1.0785573E-2,-6.2518087E-3,-0E0,-3.6275382E-3,2.6234584E-3,9.344961E-3,1.9533464E-3,-3.3583175E-3,1.9820056E-4,9.682664E-3,2.1859344E-4,-1.4243262E-4,5.6856875E-3,-0E0],"categories":[],"categories_nodes":[],"categories_segments":[],"categories_sizes":[],"default_left":[0,0,0,0,0,0,0,0,0,0,0,0,0,0,0,0,0,0,0,0,0,0,0,0,0,0,0,0,0,0,0,0,0,0,0,0,0,0,0,0,0,0,0],"id":24,"left_children":[1,3,5,7,9,11,-1,13,15,17,19,21,23,25,27,-1,29,31,33,35,37,-1,-1,39,41,-1,-1,-1,-1,-1,-1,-1,-1,-1,-1,-1,-1,-1,-1,-1,-1,-1,-1],"loss_changes":[4.45109E2,2.6982083E2,2.2922852E1,8.421445E1,7.234292E1,3.2709084E0,0E0,2.930026E0,3.3710968E1,1.1239777E1,4.457786E1,6.307335E-1,1.520741E0,3.2306895E0,1.9824393E-1,0E0,1.0365829E1,9.664743E-1,1.3195747E1,3.0601345E1,5.5435535E1,0E0,0E0,4.841786E-3,4.8245E-1,0E0,0E0,0E0,0E0,0E0,0E0,0E0,0E0,0E0,0E0,0E0,0E0,0E0,0E0,0E0,0E0,0E0,0E0],"parents":[2147483647,0,0,1,1,2,2,3,3,4,4,5,5,7,7,8,8,9,9,10,10,11,11,12,12,13,13,14,14,16,16,17,17,18,18,19,19,20,20,23,23,24,24],"right_children":[2,4,6,8,10,12,-1,14,16,18,20,22,24,26,28,-1,30,32,34,36,38,-1,-1,40,42,-1,-1,-1,-1,-1,-1,-1,-1,-1,-1,-1,-1,-1,-1,-1,-1,-1,-1],"split_conditions":[8.0422187E-1,-6.1257243E-1,9.1875875E-1,-9.997022E-1,-2.625691E-1,-8.5903734E-1,1.8843751E-2,-7.929014E-1,-9.9613774E-1,-7.1428573E-1,-1.8874273E-1,-9.974084E-1,-9.365987E-1,1.8560286E-1,-7.236465E-1,-1.7745739E-2,-3.4983924E-1,-6.11609E-1,-6.8031E-1,-9.9065936E-1,-9.9999994E-1,-0E0,1.1597756E-2,8.4337753E-1,9.041087E-1,6.010168E-3,-9.024869E-6,-7.2874327E-4,8.1643334E-4,-1.0785573E-2,-6.2518087E-3,-0E0,-3.6275382E-3,2.6234584E-3,9.344961E-3,1.9533464E-3,-3.3583175E-3,1.9820056E-4,9.682664E-3,2.1859344E-4,-1.4243262E-4,5.6856875E-3,-0E0],"split_indices":[0,0,0,2,0,3,0,0,0,6,2,2,1,3,0,0,2,2,2,3,5,0,0,0,0,0,0,0,0,0,0,0,0,0,0,0,0,0,0,0,0,0,0],"split_type":[0,0,0,0,0,0,0,0,0,0,0,0,0,0,0,0,0,0,0,0,0,0,0,0,0,0,0,0,0,0,0,0,0,0,0,0,0,0,0,0,0,0,0],"sum_hessian":[2.3609614E3,2.1254E3,2.355615E2,6.1043854E2,1.5149613E3,9.024693E1,1.4531456E2,7.891002E1,5.3152856E2,2.5996747E2,1.2549938E3,5.9120724E1,3.1126207E1,4.1702118E1,3.7207897E1,7.905656E1,4.52472E2,1.3136958E1,2.4683052E2,7.8442676E2,4.7056702E2,2.9812355E0,5.613949E1,1.2150721E1,1.8975487E1,3.6953186E1,4.7489343E0,1.4987275E1,2.2220621E1,2.1483511E2,2.3763687E2,2.4766011E0,1.0660357E1,8.223462E1,1.645959E2,2.019535E2,5.8247327E2,3.5314325E2,1.1742377E2,4.3672843E0,7.7834363E0,1.7535925E1,1.4395611E0],"tree_param":{"num_deleted":"0","num_feature":"10","num_nodes":"43","size_leaf_vector":"1"}},{"base_weights":[3.2244732E-3,3.9955813E-1,-1.2571825E0,-1.0951964E0,1.2167722E0,1.7484729E-1,-1.5501742E0,2.1401569E-1,-1.5791678E0,1.2412136E0,-1.224515E-2,2.7450716E-1,-3.770797E-2,-1.9167112E-2,-3.7362927E-1,2.6719886E-1,-0E0,-1.9037332E-2,-0E0,6.510557E-1,1.299618E0,-2.3488378E-2,3.442142E-1,-1.9644609E-1,-0E0,-8.590519E-3,-0E0,1.0899153E-3,4.43421E-3,-2.6521173E-3,2.0976634E-4,9.265476E-3,-1.8701774E-5,1.4730605E-2,1.8389737E-2,-2.049874E-3,-0E0,5.4323897E-3,-0E0,-4.001687E-3,-0E0,1.2997728E-3,-0E0,-0E0,-3.1852265E-4],"categories":[],"categories_nodes":[],"categories_segments":[],"categories_sizes":[],"default_left":[0,0,0,0,0,0,0,0,0,0,0,0,0,0,0,0,0,0,0,0,0,0,0,0,0,0,0,0,0,0,0,0,0,0,0,0,0,0,0,0,0,0,0,0,0],"id":25,"left_children":[1,3,5,7,9,11,13,15,17,19,-1,21,23,-1,25,27,29,-1,-1,31,33,35,37,39,41,-1,43,-1,-1,-1,-1,-1,-1,-1,-1,-1,-1,-1,-1,-1,-1,-1,-1,-1,-1],"loss_changes":[1.1892772E3,2.225198E3,2.4359583E2,4.1280682E2,7.1096924E1,2.7651947E0,1.7219116E1,2.6793013E0,3.5332031E0,3.1142334E1,0E0,2.4502435E0,4.8636457E-1,0E0,2.2640026E0,1.3707666E0,6.466748E-1,0E0,0E0,1.1295879E1,1.7033691E0,2.8087202E-1,2.5349026E0,5.701186E-1,1.624544E-1,0E0,1.0791437E-2,0E0,0E0,0E0,0E0,0E0,0E0,0E0,0E0,0E0,0E0,0E0,0E0,0E0,0E0,0E0,0E0,0E0,0E0],"parents":[2147483647,0,0,1,1,2,2,3,3,4,4,5,5,6,6,7,7,8,8,9,9,11,11,12,12,14,14,15,15,16,16,19,19,20,20,21,21,22,22,23,23,24,24,26,26],"right_children":[2,4,6,8,10,12,14,16,18,20,-1,22,24,-1,26,28,30,-1,-1,32,34,36,38,40,42,-1,44,-1,-1,-1,-1,-1,-1,-1,-1,-1,-1,-1,-1,-1,-1,-1,-1,-1,-1],"split_conditions":[0E0,-3.3333334E-1,-9.997022E-1,-9.999437E-1,4.2909107E-1,4.4129986E-1,9.344056E-1,1.9566761E-1,8.810006E-1,-7.0992875E-1,-1.224515E-2,-8.9119E-1,5.759473E-1,-1.9167112E-2,-6.8529E-1,2.857143E-1,2.4464977E-1,-1.9037332E-2,-0E0,-9.999998E-1,7.9156953E-1,-9.9999195E-1,-9.999718E-1,-8.7113976E-1,-8.756417E-1,-8.590519E-3,-1.142039E-1,1.0899153E-3,4.43421E-3,-2.6521173E-3,2.0976634E-4,9.265476E-3,-1.8701774E-5,1.4730605E-2,1.8389737E-2,-2.049874E-3,-0E0,5.4323897E-3,-0E0,-4.001687E-3,-0E0,1.2997728E-3,-0E0,-0E0,-3.1852265E-4],"split_indices":[9,9,2,2,1,0,2,3,2,0,0,0,0,0,0,6,3,0,0,5,0,2,2,3,3,0,0,0,0,0,0,0,0,0,0,0,0,0,0,0,0,0,0,0,0],"split_type":[0,0,0,0,0,0,0,0,0,0,0,0,0,0,0,0,0,0,0,0,0,0,0,0,0,0,0,0,0,0,0,0,0,0,0,0,0,0,0,0,0,0,0,0,0],"sum_hessian":[2.3753357E3,1.8111774E3,5.641583E2,6.385053E2,1.172672E3,9.467277E1,4.6948557E2,1.7163803E2,4.6686728E2,1.1632723E3,9.39961E0,7.167729E1,2.2995476E1,4.483891E2,2.1096457E1,1.4588962E2,2.5748417E1,4.6512637E2,1.7409034E0,1.140407E2,1.0492317E3,7.2451143E0,6.4432175E1,8.747369E0,1.4248107E1,6.640386E0,1.4456071E1,6.5955444E1,7.993417E1,8.249492E0,1.7498924E1,9.8876686E1,1.516402E1,8.274224E2,2.2180928E2,4.996455E0,2.2486591E0,4.7691822E1,1.6740355E1,4.998604E0,3.7487648E0,8.998899E0,5.249207E0,3.9840457E0,1.0472025E1],"tree_param":{"num_deleted":"0","num_feature":"10","num_nodes":"45","size_leaf_vector":"1"}},{"base_weights":[-0E0,-1.4626606E-1,1.2777742E0,-6.765796E-1,6.7900494E-2,7.7689946E-1,1.8569458E-2,2.2486344E-1,-8.2090145E-1,5.556004E-1,-3.048847E-2,9.1046596E-1,3.7728187E-1,2.9368964E-1,-4.1058287E-2,-1.7354866E-2,-6.9279385E-1,1.7249869E-1,7.178576E-1,-1.3563356E-1,2.664583E-1,-0E0,1.1074009E-2,-0E0,4.9952942E-1,4.9041524E-3,-4.0589273E-4,-2.9031509E-3,-0E0,-1.0028826E-2,-5.4306258E-3,5.6411456E-3,-0E0,-2.390183E-3,9.574134E-3,2.0745124E-3,-2.5232576E-3,-5.880455E-4,8.808177E-3,-0E0,-8.106489E-4,-0E0,6.4661666E-3],"categories":[],"categories_nodes":[],"categories_segments":[],"categories_sizes":[],"default_left":[0,0,0,0,0,0,0,0,0,0,0,0,0,0,0,0,0,0,0,0,0,0,0,0,0,0,0,0,0,0,0,0,0,0,0,0,0,0,0,0,0,0,0],"id":26,"left_children":[1,3,5,7,9,11,-1,13,15,17,19,21,23,25,27,-1,29,31,33,35,37,-1,-1,39,41,-1,-1,-1,-1,-1,-1,-1,-1,-1,-1,-1,-1,-1,-1,-1,-1,-1,-1],"loss_changes":[4.4115295E2,2.4309105E2,2.0698425E1,8.2447845E1,7.4096176E1,2.3652649E-1,0E0,2.2841196E0,3.2278137E1,1.320858E1,3.9197292E1,3.1892014E-1,2.5258927E0,3.9032402E0,7.1320117E-1,0E0,1.0431732E1,5.037833E0,1.5020538E1,2.1837112E1,4.9743065E1,0E0,0E0,4.091848E-2,9.037342E-1,0E0,0E0,0E0,0E0,0E0,0E0,0E0,0E0,0E0,0E0,0E0,0E0,0E0,0E0,0E0,0E0,0E0,0E0],"parents":[2147483647,0,0,1,1,2,2,3,3,4,4,5,5,7,7,8,8,9,9,10,10,11,11,12,12,13,13,14,14,16,16,17,17,18,18,19,19,20,20,23,23,24,24],"right_children":[2,4,6,8,10,12,-1,14,16,18,20,22,24,26,28,-1,30,32,34,36,38,-1,-1,40,42,-1,-1,-1,-1,-1,-1,-1,-1,-1,-1,-1,-1,-1,-1,-1,-1,-1,-1],"split_conditions":[8.0422187E-1,-6.1257243E-1,9.1875875E-1,-9.997022E-1,-2.625691E-1,-8.5903734E-1,1.8569458E-2,1.8560286E-1,-9.9613774E-1,-6.8031E-1,-9.9999994E-1,-9.999663E-1,-7.767343E-1,-6.9088364E-1,-7.043351E-1,-1.7354866E-2,-7.634681E-1,-9.856014E-1,-7.1428573E-1,-9.831507E-1,-3.2306224E-1,-0E0,1.1074009E-2,8.4337753E-1,-9.9999195E-1,4.9041524E-3,-4.0589273E-4,-2.9031509E-3,-0E0,-1.0028826E-2,-5.4306258E-3,5.6411456E-3,-0E0,-2.390183E-3,9.574134E-3,2.0745124E-3,-2.5232576E-3,-5.880455E-4,8.808177E-3,-0E0,-8.106489E-4,-0E0,6.4661666E-3],"split_indices":[0,0,0,2,0,3,0,3,0,2,5,3,3,0,0,0,0,2,6,2,2,0,0,0,2,0,0,0,0,0,0,0,0,0,0,0,0,0,0,0,0,0,0],"split_type":[0,0,0,0,0,0,0,0,0,0,0,0,0,0,0,0,0,0,0,0,0,0,0,0,0,0,0,0,0,0,0,0,0,0,0,0,0,0,0,0,0,0,0],"sum_hessian":[2.3572566E3,2.1197822E3,2.374744E2,6.102065E2,1.5095757E3,9.268823E1,1.4478615E2,8.139E1,5.2881647E2,2.5397365E2,1.255602E3,5.999319E1,3.2695045E1,7.189238E1,9.497623E0,7.8175705E1,4.5064078E2,8.325097E1,1.7072269E2,9.3558887E2,3.2001315E2,1.193934E0,5.879926E1,6.019354E0,2.667569E1,5.8166447E1,1.3725933E1,7.7481346E0,1.7494888E0,2.692921E2,1.8134865E2,2.9867582E1,5.3383385E1,1.0385636E1,1.6033705E2,1.7390178E2,7.616871E2,1.9028731E2,1.2972583E2,1.9134057E0,4.105948E0,1.2492808E0,2.542641E1],"tree_param":{"num_deleted":"0","num_feature":"10","num_nodes":"43","size_leaf_vector":"1"}},{"base_weights":[4.2270883E-3,3.9388815E-1,-1.2474266E0,-1.0935038E0,1.2055568E0,-4.8896438E-1,-1.5272806E0,-3.361535E-1,-1.8748807E-2,1.2297978E0,-1.2095683E-2,-1.7403385E-2,1.4339066E-1,-8.1659883E-1,-1.9140385E-2,-1.7891178E-2,2.201727E-1,4.3632194E-2,1.2508602E0,2.4997465E-1,-7.202773E-2,-0E0,-8.488612E-1,3.4169082E-3,-5.796939E-4,-2.9281096E-3,4.826569E-3,1.0596332E-2,1.5572507E-2,-0E0,3.7515003E-3,-1.9140169E-3,-0E0,-1.0533052E-2,-0E0],"categories":[],"categories_nodes":[],"categories_segments":[],"categories_sizes":[],"default_left":[0,0,0,0,0,0,0,0,0,0,0,0,0,0,0,0,0,0,0,0,0,0,0,0,0,0,0,0,0,0,0,0,0,0,0],"id":27,"left_children":[1,3,5,7,9,11,13,15,-1,17,-1,-1,19,21,-1,-1,23,25,27,29,31,-1,33,-1,-1,-1,-1,-1,-1,-1,-1,-1,-1,-1,-1],"loss_changes":[1.1535253E3,2.190149E3,1.1027515E2,2.1890027E2,6.954834E1,1.0195007E2,6.413513E0,1.6672888E2,0E0,2.5505981E1,0E0,0E0,2.8343396E0,4.7052765E-1,0E0,0E0,3.6529255E0,3.7104933E0,7.8950195E0,1.9225063E0,5.069053E-1,0E0,6.4450073E-1,0E0,0E0,0E0,0E0,0E0,0E0,0E0,0E0,0E0,0E0,0E0,0E0],"parents":[2147483647,0,0,1,1,2,2,3,3,4,4,5,5,6,6,7,7,9,9,12,12,13,13,16,16,17,17,18,18,19,19,20,20,22,22],"right_children":[2,4,6,8,10,12,14,16,-1,18,-1,-1,20,22,-1,-1,24,26,28,30,32,-1,34,-1,-1,-1,-1,-1,-1,-1,-1,-1,-1,-1,-1],"split_conditions":[0E0,-3.3333334E-1,-9.996071E-1,-9.996071E-1,4.2909107E-1,-9.996127E-1,-7.1428573E-1,-9.996127E-1,-1.8748807E-2,-9.416661E-1,-1.2095683E-2,-1.7403385E-2,4.4129986E-1,-9.9989897E-1,-1.9140385E-2,-1.7891178E-2,1.9566761E-1,-2.8516173E-1,-6.1257243E-1,-8.9119E-1,-1.6726401E-1,-0E0,6.898182E-1,3.4169082E-3,-5.796939E-4,-2.9281096E-3,4.826569E-3,1.0596332E-2,1.5572507E-2,-0E0,3.7515003E-3,-1.9140169E-3,-0E0,-1.0533052E-2,-0E0],"split_indices":[9,9,1,1,1,1,6,1,0,0,0,0,0,3,0,0,3,4,0,0,3,0,0,0,0,0,0,0,0,0,0,0,0,0,0],"split_type":[0,0,0,0,0,0,0,0,0,0,0,0,0,0,0,0,0,0,0,0,0,0,0,0,0,0,0,0,0,0,0,0,0,0,0],"sum_hessian":[2.3598096E3,1.8036825E3,5.56127E2,6.3506726E2,1.1686151E3,1.5597025E2,4.0015677E2,2.4750677E2,3.875605E2,1.1592375E3,9.377671E0,6.10616E1,9.4908646E1,4.273454E1,3.5742224E2,7.939077E1,1.6811601E2,2.2605665E1,1.1366318E3,7.091369E1,2.399496E1,2.8977723E0,3.9836765E1,1.4311755E2,2.4998466E1,9.443617E0,1.3162048E1,1.4123271E2,9.953991E2,7.4942064E0,6.341948E1,2.0995613E1,2.9993474E0,3.7884384E1,1.9523821E0],"tree_param":{"num_deleted":"0","num_feature":"10","num_nodes":"35","size_leaf_vector":"1"}},{"base_weights":[-1.1313935E-3,3.835524E-1,-1.2390999E0,-1.0782688E0,1.1869079E0,-4.7155678E-1,-1.51325E0,-3.193152E-1,-1.8553615E-2,1.2111018E0,-1.2024942E-2,-1.7258076E-2,1.7221145E-1,-7.98138E-1,-1.9004121E-2,-1.7713994E-2,2.189072E-1,6.37122E-1,1.2665547E0,2.597633E-1,-3.4428255E-3,-0E0,-8.283923E-1,-1.322053E-3,2.9603387E-3,-2.6743105E-3,8.4667215E-3,1.5364864E-2,3.286274E-3,3.8783567E-3,-1.3349846E-4,-1.0756585E-3,-0E0,-1.20524205E-2,-3.0473163E-3],"categories":[],"categories_nodes":[],"categories_segments":[],"categories_sizes":[],"default_left":[0,0,0,0,0,0,0,0,0,0,0,0,0,0,0,0,0,0,0,0,0,0,0,0,0,0,0,0,0,0,0,0,0,0,0],"id":28,"left_children":[1,3,5,7,9,11,13,15,-1,17,-1,-1,19,21,-1,-1,23,25,27,29,31,-1,33,-1,-1,-1,-1,-1,-1,-1,-1,-1,-1,-1,-1],"loss_changes":[1.1257714E3,2.118556E3,1.0946582E2,2.1888165E2,6.807092E1,1.0206143E2,7.749939E0,1.6107732E2,0E0,2.7942871E1,0E0,0E0,2.1523736E0,4.137287E-1,0E0,0E0,2.0561342E0,8.714149E0,7.022705E0,2.0874724E0,1.9106519E-1,0E0,1.543808E-1,0E0,0E0,0E0,0E0,0E0,0E0,0E0,0E0,0E0,0E0,0E0,0E0],"parents":[2147483647,0,0,1,1,2,2,3,3,4,4,5,5,6,6,7,7,9,9,12,12,13,13,16,16,17,17,18,18,19,19,20,20,22,22],"right_children":[2,4,6,8,10,12,14,16,-1,18,-1,-1,20,22,-1,-1,24,26,28,30,32,-1,34,-1,-1,-1,-1,-1,-1,-1,-1,-1,-1,-1,-1],"split_conditions":[0E0,-3.3333334E-1,-9.996071E-1,-9.996071E-1,4.2909107E-1,-9.996127E-1,-7.1428573E-1,-9.996127E-1,-1.8553615E-2,-7.1605515E-1,-1.2024942E-2,-1.7258076E-2,4.4129986E-1,-9.9989897E-1,-1.9004121E-2,-1.7713994E-2,-9.5848185E-1,-9.9613774E-1,8.4372675E-1,2.4464977E-1,-3.1524897E-1,-0E0,-1.3836578E-1,-1.322053E-3,2.9603387E-3,-2.6743105E-3,8.4667215E-3,1.5364864E-2,3.286274E-3,3.8783567E-3,-1.3349846E-4,-1.0756585E-3,-0E0,-1.20524205E-2,-3.0473163E-3],"split_indices":[9,9,1,1,1,1,8,1,0,0,0,0,0,3,0,0,4,0,4,3,3,0,1,0,0,0,0,0,0,0,0,0,0,0,0],"split_type":[0,0,0,0,0,0,0,0,0,0,0,0,0,0,0,0,0,0,0,0,0,0,0,0,0,0,0,0,0,0,0,0,0,0,0],"sum_hessian":[2.3495898E3,1.793565E3,5.56025E2,6.3437427E2,1.1591907E3,1.5228432E2,4.037407E2,2.4652826E2,3.8784598E2,1.1498239E3,9.366784E0,6.0129505E1,9.215481E1,4.3934513E1,3.5980618E2,7.7174515E1,1.6935374E2,1.10735985E2,1.0390879E3,6.965924E1,2.2495571E1,2.8977723E0,4.1036743E1,4.749033E0,1.646047E2,4.492839E0,1.0624315E2,1.0224914E3,1.6596518E1,6.3411747E1,6.2474957E0,1.8996225E1,3.499346E0,2.5266485E1,1.5770258E1],"tree_param":{"num_deleted":"0","num_feature":"10","num_nodes":"35","size_leaf_vector":"1"}},{"base_weights":[-1.4861738E-3,3.769881E-1,-1.2270123E0,-1.076606E0,1.1782305E0,-4.7502258E-1,-1.4989629E0,-3.3184245E-1,-1.8499015E-2,1.1997938E0,-1.1229258E-2,-1.714708E-2,1.6058248E-1,-7.6689947E-1,-1.8866766E-2,-1.7606022E-2,1.9991386E-1,6.088279E-1,1.2570672E0,2.6486248E-1,-5.5599835E-2,-9.296323E-1,-2.0350328E-1,2.8488787E-3,-0E0,-3.6954763E-3,8.257726E-3,1.5246821E-2,3.682198E-3,-0E0,3.9376547E-3,-1.4864894E-3,-0E0,-0E0,-1.1643042E-2,-3.6856327E-3,-0E0],"categories":[],"categories_nodes":[],"categories_segments":[],"categories_sizes":[],"default_left":[0,0,0,0,0,0,0,0,0,0,0,0,0,0,0,0,0,0,0,0,0,0,0,0,0,0,0,0,0,0,0,0,0,0,0,0,0],"id":29,"left_children":[1,3,5,7,9,11,13,15,-1,17,-1,-1,19,21,-1,-1,23,25,27,29,31,33,35,-1,-1,-1,-1,-1,-1,-1,-1,-1,-1,-1,-1,-1,-1],"loss_changes":[1.0909412E3,2.0934336E3,1.0506818E2,2.1279523E2,5.893994E1,9.947543E1,9.186829E0,1.5716019E2,0E0,3.0421753E1,0E0,0E0,2.794618E0,6.2543297E-1,0E0,0E0,1.7206383E0,1.0274776E1,5.8513184E0,2.0162435E0,2.9539233E-1,1.8889046E-1,6.20193E-1,0E0,0E0,0E0,0E0,0E0,0E0,0E0,0E0,0E0,0E0,0E0,0E0,0E0,0E0],"parents":[2147483647,0,0,1,1,2,2,3,3,4,4,5,5,6,6,7,7,9,9,12,12,13,13,16,16,17,17,18,18,19,19,20,20,21,21,22,22],"right_children":[2,4,6,8,10,12,14,16,-1,18,-1,-1,20,22,-1,-1,24,26,28,30,32,34,36,-1,-1,-1,-1,-1,-1,-1,-1,-1,-1,-1,-1,-1,-1],"split_conditions":[0E0,-3.3333334E-1,-9.996071E-1,-9.996071E-1,4.2909107E-1,-9.996127E-1,-7.1428573E-1,-9.996127E-1,-1.8499015E-2,-7.1605515E-1,-1.1229258E-2,-1.714708E-2,4.4129986E-1,-1.3836578E-1,-1.8866766E-2,-1.7606022E-2,-9.999997E-1,-9.9613774E-1,8.4372675E-1,-8.9119E-1,-1.6726401E-1,-9.9989897E-1,2.730905E-1,2.8488787E-3,-0E0,-3.6954763E-3,8.257726E-3,1.5246821E-2,3.682198E-3,-0E0,3.9376547E-3,-1.4864894E-3,-0E0,-0E0,-1.1643042E-2,-3.6856327E-3,-0E0],"split_indices":[9,9,1,1,1,1,8,1,0,0,0,0,0,1,0,0,5,0,4,0,3,3,0,0,0,0,0,0,0,0,0,0,0,0,0,0,0],"split_type":[0,0,0,0,0,0,0,0,0,0,0,0,0,0,0,0,0,0,0,0,0,0,0,0,0,0,0,0,0,0,0,0,0,0,0,0,0],"sum_hessian":[2.337587E3,1.7870065E3,5.505805E2,6.3327106E2,1.1537354E3,1.5229027E2,3.9829022E2,2.4811531E2,3.8515576E2,1.1453667E3,8.368668E0,6.014251E1,9.214776E1,4.3629845E1,3.5466037E2,7.802813E1,1.7008719E2,1.10159164E2,1.0352075E3,6.9403046E1,2.2744717E1,2.7866362E1,1.5763485E1,1.5010153E2,1.9985655E1,4.9916368E0,1.0516753E2,1.0181199E3,1.7087677E1,6.9938145E0,6.240923E1,1.9995369E1,2.749348E0,2.4084349E0,2.5457926E1,1.0794903E1,4.9685826E0],"tree_param":{"num_deleted":"0","num_feature":"10","num_nodes":"37","size_leaf_vector":"1"}},{"base_weights":[-0E0,3.7851375E-1,-1.2146457E0,-1.0590016E0,1.1772928E0,1.7034827E-1,-1.5026608E0,2.0627628E-1,-1.5311639E0,6.827361E-1,1.25454E0,2.617797E-1,-1.8740686E-2,-1.854924E-2,-4.0623114E-1,2.7934802E-1,-0E0,-1.8461129E-2,-0E0,-5.352322E-3,7.537588E-1,1.2647237E0,2.4905455E-1,-0E0,3.2280022E-1,-1.2268206E-1,-0E0,-8.753696E-3,-0E0,6.6408946E-4,4.954882E-3,-1.9164607E-3,1.3034268E-3,9.999414E-3,-0E0,1.4265568E-2,1.7962301E-2,-4.1921153E-3,7.6793404E-3,3.271584E-3,-4.7907764E-3,4.9874596E-3,-0E0,-0E0,-2.0978376E-3,-0E0,-1.2128253E-3],"categories":[],"categories_nodes":[],"categories_segments":[],"categories_sizes":[],"default_left":[0,0,0,0,0,0,0,0,0,0,0,0,0,0,0,0,0,0,0,0,0,0,0,0,0,0,0,0,0,0,0,0,0,0,0,0,0,0,0,0,0,0,0,0,0,0,0],"id":30,"left_children":[1,3,5,7,9,11,13,15,17,19,21,23,25,-1,27,29,31,-1,-1,-1,33,35,37,39,41,43,-1,-1,45,-1,-1,-1,-1,-1,-1,-1,-1,-1,-1,-1,-1,-1,-1,-1,-1,-1,-1],"loss_changes":[1.0783488E3,2.0616067E3,2.2688068E2,3.8772205E2,3.4948242E1,2.3531213E0,1.2863403E1,2.4759827E0,3.5925293E0,1.6136871E1,4.7043457E0,1.6712041E0,3.6473694E-1,0E0,2.114944E0,2.5148096E0,9.774238E-1,0E0,0E0,0E0,8.687622E0,1.8360596E0,6.147305E0,2.3233316E0,2.603619E0,3.3827522E-1,0E0,0E0,1.5365855E-1,0E0,0E0,0E0,0E0,0E0,0E0,0E0,0E0,0E0,0E0,0E0,0E0,0E0,0E0,0E0,0E0,0E0,0E0],"parents":[2147483647,0,0,1,1,2,2,3,3,4,4,5,5,6,6,7,7,8,8,9,9,10,10,11,11,12,12,14,14,15,15,16,16,20,20,21,21,22,22,23,23,24,24,25,25,28,28],"right_children":[2,4,6,8,10,12,14,16,18,20,22,24,26,-1,28,30,32,-1,-1,-1,34,36,38,40,42,44,-1,-1,46,-1,-1,-1,-1,-1,-1,-1,-1,-1,-1,-1,-1,-1,-1,-1,-1,-1,-1],"split_conditions":[0E0,-3.3333334E-1,-9.997022E-1,-9.999437E-1,-6.1257243E-1,4.4129986E-1,9.344056E-1,-3.6276042E-1,8.810006E-1,-9.9613774E-1,8.5628873E-1,-9.95543E-1,-1.6726401E-1,-1.854924E-2,-6.8529E-1,2.857143E-1,-2.2477287E-1,-1.8461129E-2,-0E0,-5.352322E-3,-9.9999976E-1,7.9156953E-1,1.2409808E-1,-1.142039E-1,7.320337E-1,-4.2857143E-1,-0E0,-8.753696E-3,9.583677E-1,6.6408946E-4,4.954882E-3,-1.9164607E-3,1.3034268E-3,9.999414E-3,-0E0,1.4265568E-2,1.7962301E-2,-4.1921153E-3,7.6793404E-3,3.271584E-3,-4.7907764E-3,4.9874596E-3,-0E0,-0E0,-2.0978376E-3,-0E0,-1.2128253E-3],"split_indices":[9,9,2,2,0,0,2,3,2,0,4,3,3,0,0,6,3,0,0,0,7,0,2,0,4,6,0,0,4,0,0,0,0,0,0,0,0,0,0,0,0,0,0,0,0,0,0],"split_type":[0,0,0,0,0,0,0,0,0,0,0,0,0,0,0,0,0,0,0,0,0,0,0,0,0,0,0,0,0,0,0,0,0,0,0,0,0,0,0,0,0,0,0,0,0,0,0],"sum_hessian":[2.3371821E3,1.7849747E3,5.5220746E2,6.358607E2,1.149114E3,9.3879074E1,4.5832837E2,1.7207483E2,4.6378592E2,1.6620174E2,9.829123E2,7.113423E1,2.2744846E1,4.3756866E2,2.0759678E1,1.23334915E2,4.8739906E1,4.620539E2,1.7320082E0,6.185383E0,1.6001636E2,9.692923E2,1.3620027E1,9.984938E0,6.1149292E1,1.9995434E1,2.7494137E0,7.073642E0,1.3686036E1,5.5685654E1,6.764926E1,1.6245224E1,3.2494682E1,1.4292395E2,1.7092407E1,7.562325E2,2.1305978E2,2.991858E0,1.0628169E1,4.743871E0,5.241067E0,5.0158363E1,1.0990928E1,1.4996022E0,1.849583E1,3.4886594E0,1.0197376E1],"tree_param":{"num_deleted":"0","num_feature":"10","num_nodes":"47","size_leaf_vector":"1"}},{"base_weights":[-5.677829E-4,-1.4346278E-1,1.2441648E0,-6.631273E-1,6.8005934E-2,7.522324E-1,1.7997283E-2,1.9409288E-1,-8.024103E-1,5.162539E-1,-2.18913E-2,8.218894E-1,-9.222367E-2,3.686273E-1,-0E0,-1.2634449E0,-6.381226E-1,1.5000825E-1,1.0854919E0,-2.2627106E-1,2.3831162E-1,-0E0,8.332818E-1,-0E0,-1.9911684E-3,5.8909035E-3,-1.2338511E-3,-2.701806E-3,1.8357822E-3,-0E0,-1.5296384E-2,-1.028996E-3,-8.873548E-3,7.7603413E-3,-4.5515443E-3,6.9111562E-3,1.5580012E-2,3.4991244E-3,-3.900304E-3,1.506327E-2,5.548462E-4,1.0932906E-2,2.5635802E-3],"categories":[],"categories_nodes":[],"categories_segments":[],"categories_sizes":[],"default_left":[0,0,0,0,0,0,0,0,0,0,0,0,0,0,0,0,0,0,0,0,0,0,0,0,0,0,0,0,0,0,0,0,0,0,0,0,0,0,0,0,0,0,0],"id":31,"left_children":[1,3,5,7,9,11,-1,13,15,17,19,21,23,25,27,29,31,33,35,37,39,-1,41,-1,-1,-1,-1,-1,-1,-1,-1,-1,-1,-1,-1,-1,-1,-1,-1,-1,-1,-1,-1],"loss_changes":[4.115531E2,2.3159311E2,1.8457245E1,7.501834E1,6.126288E1,7.7804413E0,0E0,3.304781E0,3.1139526E1,4.8883774E1,6.612244E1,4.897461E-1,1.320563E-1,4.006733E0,1.7207227E0,8.7815857E-1,1.992598E1,4.452351E1,1.8852463E0,3.6272816E1,1.02117485E2,0E0,3.8921356E-1,0E0,0E0,0E0,0E0,0E0,0E0,0E0,0E0,0E0,0E0,0E0,0E0,0E0,0E0,0E0,0E0,0E0,0E0,0E0,0E0],"parents":[2147483647,0,0,1,1,2,2,3,3,4,4,5,5,7,7,8,8,9,9,10,10,11,11,12,12,13,13,14,14,15,15,16,16,17,17,18,18,19,19,20,20,22,22],"right_children":[2,4,6,8,10,12,-1,14,16,18,20,22,24,26,28,30,32,34,36,38,40,-1,42,-1,-1,-1,-1,-1,-1,-1,-1,-1,-1,-1,-1,-1,-1,-1,-1,-1,-1,-1,-1],"split_conditions":[8.0422187E-1,-6.1257243E-1,9.1875875E-1,-9.997022E-1,-7.96365E-1,8.3354217E-1,1.7997283E-2,-7.929014E-1,-9.545848E-1,-8.667911E-1,-1.8874273E-1,-9.9999595E-1,-9.9927163E-1,2.1610023E-1,-8.332402E-2,-9.855932E-1,-7.3341733E-1,-9.385168E-1,-7.711683E-1,-2.90271E-1,-1.5128317E-1,-0E0,-2.76107E-1,-0E0,-1.9911684E-3,5.8909035E-3,-1.2338511E-3,-2.701806E-3,1.8357822E-3,-0E0,-1.5296384E-2,-1.028996E-3,-8.873548E-3,7.7603413E-3,-4.5515443E-3,6.9111562E-3,1.5580012E-2,3.4991244E-3,-3.900304E-3,1.506327E-2,5.548462E-4,1.0932906E-2,2.5635802E-3],"split_indices":[0,0,0,2,4,4,0,0,0,2,2,2,2,3,4,4,4,4,2,0,4,0,3,0,0,0,0,0,0,0,0,0,0,0,0,0,0,0,0,0,0,0,0],"split_type":[0,0,0,0,0,0,0,0,0,0,0,0,0,0,0,0,0,0,0,0,0,0,0,0,0,0,0,0,0,0,0,0,0,0,0,0,0,0,0,0,0,0,0],"sum_hessian":[2.3198845E3,2.0867063E3,2.3317822E2,6.040291E2,1.4826772E3,8.936386E1,1.4381435E2,8.159062E1,5.224385E2,2.4856635E2,1.2341108E3,8.547311E1,3.890758E0,4.3410645E1,3.817998E1,1.24584015E2,3.9785446E2,1.5774025E2,9.08261E1,6.970621E2,5.3704877E2,1.748427E0,8.372468E1,1.2482836E0,2.6424744E0,3.8661274E1,4.7493687E0,1.721128E1,2.0968699E1,1.4159368E0,1.23168076E2,6.650015E1,3.3135428E2,8.334485E1,7.439541E1,3.5457245E1,5.5368855E1,1.0563488E2,5.914272E2,7.903996E1,4.5800882E2,6.8805664E1,1.4919019E1],"tree_param":{"num_deleted":"0","num_feature":"10","num_nodes":"43","size_leaf_vector":"1"}},{"base_weights":[-0E0,3.7170082E-1,-1.1970906E0,-1.0622884E0,1.1560175E0,1.8429106E-1,-1.4869642E0,1.6892411E-1,-1.5195922E0,1.177948E0,-1.1347564E-2,2.7067965E-1,-0E0,-1.8383617E-2,-3.5370022E-1,2.4645023E-1,-0E0,-1.832241E-2,-0E0,6.472132E-1,1.2312069E0,3.3337846E-1,-1.4044192E-2,-1.8236724E-1,6.2079523E-3,-7.5596035E-3,-0E0,-1.4373078E-3,3.4229304E-3,-1.6824261E-3,2.1321587E-3,-4.2944667E-3,8.724132E-3,1.4937653E-2,2.9863352E-3,5.3753452E-3,-0E0,-2.4720174E-3,-0E0,-4.4072624E-3,-0E0,1.6896266E-3,-0E0,-0E0,-1.9730495E-3],"categories":[],"categories_nodes":[],"categories_segments":[],"categories_sizes":[],"default_left":[0,0,0,0,0,0,0,0,0,0,0,0,0,0,0,0,0,0,0,0,0,0,0,0,0,0,0,0,0,0,0,0,0,0,0,0,0,0,0,0,0,0,0,0,0],"id":32,"left_children":[1,3,5,7,9,11,13,15,17,19,-1,21,23,-1,25,27,29,-1,-1,31,33,35,37,39,41,-1,43,-1,-1,-1,-1,-1,-1,-1,-1,-1,-1,-1,-1,-1,-1,-1,-1,-1,-1],"loss_changes":[1.0416794E3,2.0169119E3,2.2672607E2,3.613792E2,5.9424805E1,2.2430727E0,1.5023499E1,2.7027507E0,3.5579834E0,2.3825806E1,0E0,2.2054977E0,4.705769E-1,0E0,1.1624074E0,2.368526E0,1.3716388E0,0E0,0E0,1.1689518E1,6.933716E0,3.3552303E0,3.1028533E-1,8.93137E-1,2.7875957E-1,0E0,2.7927974E-1,0E0,0E0,0E0,0E0,0E0,0E0,0E0,0E0,0E0,0E0,0E0,0E0,0E0,0E0,0E0,0E0,0E0,0E0],"parents":[2147483647,0,0,1,1,2,2,3,3,4,4,5,5,6,6,7,7,8,8,9,9,11,11,12,12,14,14,15,15,16,16,19,19,20,20,21,21,22,22,23,23,24,24,26,26],"right_children":[2,4,6,8,10,12,14,16,18,20,-1,22,24,-1,26,28,30,-1,-1,32,34,36,38,40,42,-1,44,-1,-1,-1,-1,-1,-1,-1,-1,-1,-1,-1,-1,-1,-1,-1,-1,-1,-1],"split_conditions":[0E0,-3.3333334E-1,-9.997022E-1,-9.999437E-1,4.2909107E-1,4.4129986E-1,9.344056E-1,-3.6276042E-1,8.810006E-1,-7.0992875E-1,-1.1347564E-2,2.4464977E-1,5.759473E-1,-1.8383617E-2,-7.236465E-1,-9.5848185E-1,-9.999718E-1,-1.832241E-2,-0E0,-9.9613774E-1,8.4372675E-1,-9.999718E-1,-9.9999195E-1,-8.7113976E-1,1.4369941E-1,-7.5596035E-3,9.7759104E-1,-1.4373078E-3,3.4229304E-3,-1.6824261E-3,2.1321587E-3,-4.2944667E-3,8.724132E-3,1.4937653E-2,2.9863352E-3,5.3753452E-3,-0E0,-2.4720174E-3,-0E0,-4.4072624E-3,-0E0,1.6896266E-3,-0E0,-0E0,-1.9730495E-3],"split_indices":[9,9,2,2,1,0,2,3,2,0,0,3,0,0,0,4,2,0,0,0,4,2,2,3,4,0,4,0,0,0,0,0,0,0,0,0,0,0,0,0,0,0,0,0,0],"split_type":[0,0,0,0,0,0,0,0,0,0,0,0,0,0,0,0,0,0,0,0,0,0,0,0,0,0,0,0,0,0,0,0,0,0,0,0,0,0,0,0,0,0,0,0,0],"sum_hessian":[2.3325242E3,1.7828586E3,5.496657E2,6.285925E2,1.1542661E3,9.411554E1,4.5555014E2,1.6956177E2,4.5903076E2,1.1456669E3,8.599237E0,7.162278E1,2.249276E1,4.350413E2,2.0508846E1,1.2157219E2,4.798959E1,4.5729977E2,1.7309775E0,1.1471919E2,1.0309476E3,6.537623E1,6.2465506E0,9.245511E0,1.324725E1,6.0778913E0,1.4430955E1,4.248307E0,1.17323875E2,3.274445E1,1.5245138E1,4.7364907E0,1.099827E2,1.0146143E3,1.633331E1,5.089363E1,1.4482597E1,2.499041E0,3.7475092E0,5.2471766E0,3.9983342E0,9.248486E0,3.9987633E0,8.957346E0,5.473608E0],"tree_param":{"num_deleted":"0","num_feature":"10","num_nodes":"45","size_leaf_vector":"1"}},{"base_weights":[6.6399947E-3,3.753749E-1,-1.1862538E0,-1.0344417E0,1.1527421E0,-4.396382E-1,-1.4630488E0,-3.007339E-1,-1.7980877E-2,1.1754405E0,-1.1472549E-2,-1.6715009E-2,1.7141993E-1,-7.6891017E-1,-1.8435344E-2,-1.7200045E-2,2.2173727E-1,6.442262E-1,1.2296085E0,2.6348704E-1,-1.3714213E-2,-9.285588E-1,-2.0624292E-1,3.25412E-3,-0E0,-2.5059273E-3,8.510391E-3,1.4918552E-2,3.1849646E-3,3.924171E-3,-1.6347486E-4,-1.2119948E-3,-0E0,-0E0,-1.163914E-2,-4.0340703E-3,-0E0],"categories":[],"categories_nodes":[],"categories_segments":[],"categories_sizes":[],"default_left":[0,0,0,0,0,0,0,0,0,0,0,0,0,0,0,0,0,0,0,0,0,0,0,0,0,0,0,0,0,0,0,0,0,0,0,0,0],"id":33,"left_children":[1,3,5,7,9,11,13,15,-1,17,-1,-1,19,21,-1,-1,23,25,27,29,31,33,35,-1,-1,-1,-1,-1,-1,-1,-1,-1,-1,-1,-1,-1,-1],"loss_changes":[1.01902954E3,1.9512671E3,1.04933044E2,2.0755444E2,6.0940918E1,9.574037E1,7.855591E0,1.5386122E2,0E0,2.4104004E1,0E0,0E0,2.335338E0,6.395798E-1,0E0,0E0,2.4825277E0,8.557777E0,6.4368896E0,2.1384597E0,2.3512071E-1,3.388481E-1,9.3112415E-1,0E0,0E0,0E0,0E0,0E0,0E0,0E0,0E0,0E0,0E0,0E0,0E0,0E0,0E0],"parents":[2147483647,0,0,1,1,2,2,3,3,4,4,5,5,6,6,7,7,9,9,12,12,13,13,16,16,17,17,18,18,19,19,20,20,21,21,22,22],"right_children":[2,4,6,8,10,12,14,16,-1,18,-1,-1,20,22,-1,-1,24,26,28,30,32,34,36,-1,-1,-1,-1,-1,-1,-1,-1,-1,-1,-1,-1,-1,-1],"split_conditions":[0E0,-3.3333334E-1,-9.996071E-1,-9.996071E-1,4.2909107E-1,-9.996127E-1,-7.1428573E-1,-9.996127E-1,-1.7980877E-2,-7.0992875E-1,-1.1472549E-2,-1.6715009E-2,4.4129986E-1,-1.3836578E-1,-1.8435344E-2,-1.7200045E-2,1.9566761E-1,-9.9613774E-1,8.4372675E-1,2.4464977E-1,7.109942E-1,-9.9989897E-1,2.730905E-1,3.25412E-3,-0E0,-2.5059273E-3,8.510391E-3,1.4918552E-2,3.1849646E-3,3.924171E-3,-1.6347486E-4,-1.2119948E-3,-0E0,-0E0,-1.163914E-2,-4.0340703E-3,-0E0],"split_indices":[9,9,1,1,1,1,8,1,0,0,0,0,0,1,0,0,3,0,4,3,0,3,0,0,0,0,0,0,0,0,0,0,0,0,0,0,0],"split_type":[0,0,0,0,0,0,0,0,0,0,0,0,0,0,0,0,0,0,0,0,0,0,0,0,0,0,0,0,0,0,0,0,0,0,0,0,0],"sum_hessian":[2.3115947E3,1.7699706E3,5.416242E2,6.2733813E2,1.1426324E3,1.5240721E2,3.8921698E2,2.4767654E2,3.796616E2,1.133795E3,8.837492E0,5.8798542E1,9.360867E1,4.4962486E1,3.442545E2,7.713311E1,1.7054343E2,1.1511039E2,1.01868463E3,7.036628E1,2.3242397E1,2.9009861E1,1.5952627E1,1.4654573E2,2.39977E1,4.4865713E0,1.1062382E2,1.0021079E3,1.6576702E1,6.411967E1,6.2466063E0,1.8743656E1,4.4987416E0,2.390739E0,2.6619122E1,1.1238731E1,4.713896E0],"tree_param":{"num_deleted":"0","num_feature":"10","num_nodes":"37","size_leaf_vector":"1"}},{"base_weights":[1.19742E-3,3.6954162E-1,-1.1843253E0,-1.0321231E0,1.1332327E0,1.3511159E-1,-1.4658935E0,2.0765045E-1,-1.4997444E0,1.1575043E0,-1.188147E-2,2.2476026E-1,-1.4035366E-1,-1.815512E-2,-3.4534988E-1,-1.7229557E-1,2.377583E-1,-1.8084781E-2,-0E0,6.490487E-1,1.2087034E0,-6.9370554E-3,3.0832285E-1,-0E0,-2.6342946E-1,-8.511758E-3,-0E0,-3.2058859E-3,-0E0,5.6821154E-3,1.6223055E-3,2.8053492E-3,1.0883258E-2,1.4679223E-2,2.1271922E-3,-7.4051105E-4,-0E0,4.5681577E-3,-0E0,-4.120867E-3,-0E0,1.186875E-3,-1.0790848E-3],"categories":[],"categories_nodes":[],"categories_segments":[],"categories_sizes":[],"default_left":[0,0,0,0,0,0,0,0,0,0,0,0,0,0,0,0,0,0,0,0,0,0,0,0,0,0,0,0,0,0,0,0,0,0,0,0,0,0,0,0,0,0,0],"id":34,"left_children":[1,3,5,7,9,11,13,15,17,19,-1,21,23,-1,25,27,29,-1,-1,31,33,35,37,-1,39,-1,41,-1,-1,-1,-1,-1,-1,-1,-1,-1,-1,-1,-1,-1,-1,-1,-1],"loss_changes":[1.0102135E3,1.9009451E3,2.0791351E2,3.6758783E2,6.522473E1,2.8203883E0,1.5645691E1,2.3598151E0,3.5461426E0,2.1090942E1,0E0,2.402845E0,6.827634E-1,0E0,2.866124E0,2.648624E-1,2.2320786E0,0E0,0E0,8.792324E0,9.157715E0,4.9874734E-2,1.3588166E0,0E0,4.893831E-1,0E0,2.0729107E-1,0E0,0E0,0E0,0E0,0E0,0E0,0E0,0E0,0E0,0E0,0E0,0E0,0E0,0E0,0E0,0E0],"parents":[2147483647,0,0,1,1,2,2,3,3,4,4,5,5,6,6,7,7,8,8,9,9,11,11,12,12,14,14,15,15,16,16,19,19,20,20,21,21,22,22,24,24,26,26],"right_children":[2,4,6,8,10,12,14,16,18,20,-1,22,24,-1,26,28,30,-1,-1,32,34,36,38,-1,40,-1,42,-1,-1,-1,-1,-1,-1,-1,-1,-1,-1,-1,-1,-1,-1,-1,-1],"split_conditions":[0E0,-3.3333334E-1,-9.997022E-1,-9.999437E-1,4.2909107E-1,-9.9999994E-1,9.344056E-1,-9.5848185E-1,8.810006E-1,-7.0992875E-1,-1.188147E-2,-6.829746E-1,-4.0138125E-1,-1.815512E-2,-6.8529E-1,2.0090564E-1,-5.200447E-1,-1.8084781E-2,-0E0,-3.3164585E-1,8.4372675E-1,-8.167057E-1,7.7030915E-1,-0E0,-9.999998E-1,-8.511758E-3,9.583677E-1,-3.2058859E-3,-0E0,5.6821154E-3,1.6223055E-3,2.8053492E-3,1.0883258E-2,1.4679223E-2,2.1271922E-3,-7.4051105E-4,-0E0,4.5681577E-3,-0E0,-4.120867E-3,-0E0,1.186875E-3,-1.0790848E-3],"split_indices":[9,9,2,2,1,5,2,4,2,0,0,4,4,0,0,0,4,0,0,2,4,4,4,0,5,0,4,0,0,0,0,0,0,0,0,0,0,0,0,0,0,0,0],"split_type":[0,0,0,0,0,0,0,0,0,0,0,0,0,0,0,0,0,0,0,0,0,0,0,0,0,0,0,0,0,0,0,0,0,0,0,0,0,0,0,0,0,0,0],"sum_hessian":[2.3083894E3,1.765396E3,5.4299335E2,6.208442E2,1.1445519E3,9.434492E1,4.4864844E2,1.6928207E2,4.515621E2,1.1349954E3,9.556519E0,7.8864075E1,1.548084E1,4.274431E2,2.120531E1,4.497933E0,1.6478413E2,4.4983438E2,1.7277248E0,1.1451332E2,1.020482E3,1.3976391E1,6.488769E1,4.7442675E0,1.0736572E1,7.02775E0,1.417756E1,2.7488582E0,1.7490746E0,3.7181656E1,1.2760248E2,5.1097713E1,6.341561E1,1.0044091E3,1.6072903E1,8.486087E0,5.490304E0,5.039981E1,1.4487874E1,8.491738E0,2.2448344E0,3.4876783E0,1.0689882E1],"tree_param":{"num_deleted":"0","num_feature":"10","num_nodes":"43","size_leaf_vector":"1"}},{"base_weights":[-7.8960205E-4,3.6112416E-1,-1.1796559E0,-1.0318254E0,1.1284004E0,1.3884908E-1,-1.4604928E0,1.8723914E-1,-1.4902551E0,1.1394206E0,2.822678E-1,2.0618066E-1,-4.3226015E-2,-1.8064959E-2,-3.6934367E-1,2.4030592E-1,-1.9184485E-2,-1.796997E-2,-0E0,1.1404115E0,-0E0,-5.8415015E-3,6.930029E-1,-3.0483535E-4,2.695416E-1,-0E0,-2.0473647E-1,-0E0,-5.061987E-3,-2.0561917E-3,3.322876E-3,-3.1784526E-3,1.4333744E-4,7.786848E-3,1.3886275E-2,8.654993E-3,-0E0,3.9384146E-3,-5.5673823E-5,4.2325948E-4,-0E0,-0E0,-3.8882678E-3],"categories":[],"categories_nodes":[],"categories_segments":[],"categories_sizes":[],"default_left":[0,0,0,0,0,0,0,0,0,0,0,0,0,0,0,0,0,0,0,0,0,0,0,0,0,0,0,0,0,0,0,0,0,0,0,0,0,0,0,0,0,0,0],"id":35,"left_children":[1,3,5,7,9,11,13,15,17,19,21,23,25,-1,27,29,31,-1,-1,33,-1,-1,35,-1,37,39,41,-1,-1,-1,-1,-1,-1,-1,-1,-1,-1,-1,-1,-1,-1,-1,-1],"loss_changes":[9.880504E2,1.8938943E3,2.0598212E2,3.5609674E2,5.446533E0,1.6675078E0,1.367334E1,2.5012984E0,3.4990845E0,6.3964844E-1,9.801339E0,1.8755181E0,5.957146E-1,0E0,3.586669E-1,2.7256346E0,8.9352465E-1,0E0,0E0,1.9677734E-1,0E0,0E0,1.3044357E-1,0E0,2.0199132E0,9.778319E-3,6.358992E-1,0E0,0E0,0E0,0E0,0E0,0E0,0E0,0E0,0E0,0E0,0E0,0E0,0E0,0E0,0E0,0E0],"parents":[2147483647,0,0,1,1,2,2,3,3,4,4,5,5,6,6,7,7,8,8,9,9,10,10,11,11,12,12,14,14,15,15,16,16,19,19,22,22,24,24,25,25,26,26],"right_children":[2,4,6,8,10,12,14,16,18,20,22,24,26,-1,28,30,32,-1,-1,34,-1,-1,36,-1,38,40,42,-1,-1,-1,-1,-1,-1,-1,-1,-1,-1,-1,-1,-1,-1,-1,-1],"split_conditions":[0E0,-3.3333334E-1,-9.997022E-1,-9.999437E-1,8.4372675E-1,-9.9999994E-1,9.344056E-1,1.9566761E-1,8.810006E-1,-9.950355E-1,6.763744E-1,-8.167057E-1,-4.0138125E-1,-1.8064959E-2,9.436471E-1,-9.5848185E-1,2.4464977E-1,-1.796997E-2,-0E0,-5.714286E-1,-0E0,-5.8415015E-3,9.7606814E-1,-3.0483535E-4,2.655483E-1,-9.999998E-1,-9.9999595E-1,-0E0,-5.061987E-3,-2.0561917E-3,3.322876E-3,-3.1784526E-3,1.4333744E-4,7.786848E-3,1.3886275E-2,8.654993E-3,-0E0,3.9384146E-3,-5.5673823E-5,4.2325948E-4,-0E0,-0E0,-3.8882678E-3],"split_indices":[9,9,2,2,4,5,2,3,2,5,2,4,4,0,4,4,3,0,0,6,0,0,2,0,3,5,2,0,0,0,0,0,0,0,0,0,0,0,0,0,0,0,0],"split_type":[0,0,0,0,0,0,0,0,0,0,0,0,0,0,0,0,0,0,0,0,0,0,0,0,0,0,0,0,0,0,0,0,0,0,0,0,0,0,0,0,0,0,0],"sum_hessian":[2.301179E3,1.7615864E3,5.395926E2,6.2390405E2,1.1376824E3,9.3584E1,4.4600858E2,1.6976648E2,4.541376E2,1.1184004E3,1.9281914E1,7.810397E1,1.5480022E1,4.250524E2,2.0956177E1,1.4426897E2,2.5497515E1,4.5240988E2,1.7277248E0,1.116941E3,1.4593474E0,4.2345366E0,1.5047377E1,8.735453E0,6.936852E1,5.243418E0,1.0236605E1,3.960005E0,1.6996172E1,4.4981127E0,1.3977086E2,7.999406E0,1.749811E1,4.5156868E1,1.0717842E3,1.3814291E1,1.2330862E0,6.412083E1,5.247695E0,2.9966493E0,2.246769E0,2.9960847E0,7.24052E0],"tree_param":{"num_deleted":"0","num_feature":"10","num_nodes":"43","size_leaf_vector":"1"}},{"base_weights":[8.146071E-4,3.6168802E-1,-1.1687164E0,-1.0129638E0,1.1168091E0,1.5526034E-1,-1.446785E0,2.1313383E-1,-1.4775506E0,6.234533E-1,1.1941563E0,2.6307353E-1,-7.128265E-2,-1.7919954E-2,-3.5513783E-1,3.0435807E-1,-0E0,-1.7793357E-2,-0E0,-4.6988687E-1,6.9640416E-1,1.2054081E0,1.9483441E-1,-0E0,3.2519093E-1,-0E0,-1.7405054E-1,-8.17797E-3,-0E0,-7.62034E-4,4.1007786E-3,1.9620936E-3,-1.8371019E-3,-0E0,-6.051205E-3,9.395557E-3,-0E0,1.3544066E-2,1.7293137E-2,-5.4312274E-3,7.7075902E-3,-1.6036497E-3,-0E0,4.960403E-3,-0E0,-1.0247753E-3,1.4588671E-3,-0E0,-3.8090278E-3,-0E0,-1.2493846E-3],"categories":[],"categories_nodes":[],"categories_segments":[],"categories_sizes":[],"default_left":[0,0,0,0,0,0,0,0,0,0,0,0,0,0,0,0,0,0,0,0,0,0,0,0,0,0,0,0,0,0,0,0,0,0,0,0,0,0,0,0,0,0,0,0,0,0,0,0,0,0,0],"id":36,"left_children":[1,3,5,7,9,11,13,15,17,19,21,23,25,-1,27,29,31,-1,-1,33,35,37,39,41,43,45,47,-1,49,-1,-1,-1,-1,-1,-1,-1,-1,-1,-1,-1,-1,-1,-1,-1,-1,-1,-1,-1,-1,-1,-1],"loss_changes":[9.6918744E2,1.8330082E3,2.0356268E2,3.6106042E2,3.520508E1,2.9442487E0,1.4597046E1,3.821908E0,1.3112183E0,1.5669525E1,6.2391357E0,1.8938723E0,3.1920272E-1,0E0,2.0783665E0,2.5408077E0,1.4211956E0,0E0,0E0,5.9713364E-2,1.03321E1,3.078125E0,7.4526753E0,1.8034506E-1,2.5137453E0,2.5259393E-1,7.1045494E-1,0E0,1.1461897E-1,0E0,0E0,0E0,0E0,0E0,0E0,0E0,0E0,0E0,0E0,0E0,0E0,0E0,0E0,0E0,0E0,0E0,0E0,0E0,0E0,0E0,0E0],"parents":[2147483647,0,0,1,1,2,2,3,3,4,4,5,5,6,6,7,7,8,8,9,9,10,10,11,11,12,12,14,14,15,15,16,16,19,19,20,20,21,21,22,22,23,23,24,24,25,25,26,26,28,28],"right_children":[2,4,6,8,10,12,14,16,18,20,22,24,26,-1,28,30,32,-1,-1,34,36,38,40,42,44,46,48,-1,50,-1,-1,-1,-1,-1,-1,-1,-1,-1,-1,-1,-1,-1,-1,-1,-1,-1,-1,-1,-1,-1,-1],"split_conditions":[0E0,